PID,0,1,2,3,4,5,6,7,8,9,10,11
AAACCCACACAACCGC.1,0.4541758,-1.7479718,0.5093104,0.81530815,-0.31362915,0.78079265,-0.09828648,0.5984267,-0.512581,-2.2155588,0.67725044,1.0527631
AAACCCACACATTCTT.1,0.5305436,0.06545012,-0.93786275,1.0685047,0.67421675,1.8068938,0.2212279,-2.1227858,-0.8054365,-0.59887946,-0.40157852,0.49970612
AAACCCACATCCGGTG.1,-0.6590227,-1.958043,0.11798302,1.0082631,0.83564174,1.051449,0.69730514,-0.52827936,-0.6918583,-1.4056225,0.26417053,1.2680135
AAACCCACATGTGGTT.1,-0.39275503,-0.26098654,-0.07943813,0.8369972,0.37128466,0.8159616,-0.5279913,-0.39974102,-0.89799136,-1.996043,0.30729702,2.2234058
AAACCCAGTGAGACGT.1,-0.44807485,-2.0602748,0.5929164,1.1470928,1.0367731,0.82931924,-0.71674085,-0.07338593,-0.6419744,-1.232336,0.31041673,1.2562685
AAACCCAGTTATAGCC.1,1.291557,1.117273,-0.7781465,0.68922085,-1.1077938,1.3944294,-1.2329217,-1.0285949,0.3250427,-1.2987205,-0.048556637,0.6772112
AAACCCATCAATCAGC.1,-0.230308,-0.64675385,-0.045268167,0.3326452,1.4589608,-0.8651677,-0.8132718,-0.45391566,-1.0149329,-1.0501081,1.6494523,1.6786678
AAACCCATCGCGGTAC.1,0.46901894,1.026562,0.16394806,-0.8599128,-0.5517559,-0.8507496,0.7358839,1.4267578,-0.31384096,-0.5564786,1.3447609,-2.0341938
AAACCCATCGTAACAC.1,0.13132365,-0.92912906,-0.037054993,1.3073739,-0.07217839,1.1037227,-0.8530732,-1.4977369,0.111546084,-1.400905,0.37593985,1.7601712
AAACGAACACATGGTT.1,0.08358397,0.17848809,1.8700273,-2.294092,-1.3571872,0.3060622,0.4776231,0.75751925,0.3243632,-0.24527958,0.3323433,-0.43345165
AAACGCTAGATGCCGA.1,-0.5353252,-1.4027746,1.6148723,0.88229287,0.21419173,0.056701623,-1.2797589,-0.33534315,0.42806563,-1.3864734,0.18820707,1.5553441
AAACGCTCAAATCAGA.1,-0.068485096,0.88322896,-0.98578465,-0.7162868,-1.2583605,-0.95213664,1.8618581,1.1837312,0.6016985,0.7402237,-0.083154365,-1.2065326
AAACGCTCATAGGAGC.1,-0.1862859,1.0251063,0.8829623,-2.2808158,-0.01173706,0.116021276,0.7301474,1.4414753,0.46106476,-0.64308333,-0.26537237,-1.269483
AAACGCTGTGCCTTTC.1,0.49905017,-0.84635454,-0.161914,1.04954,-0.48900926,1.0232309,-1.5553354,-1.4834603,0.9520614,-0.7845198,0.24068892,1.5560222
AAACGCTTCGGCCAAC.1,0.4628063,-1.0320911,0.9413801,-0.8590427,0.36597705,1.0530676,0.70823026,1.2700245,-0.5847843,-0.8300137,0.5919557,-2.0875099
AAAGGATAGACAAGCC.1,0.4797448,0.05490384,0.5435452,0.046952557,0.13257486,0.91500175,0.6194158,0.9746861,-1.5553378,-1.188516,1.057879,-2.0808504
AAAGGATTCATAGACC.1,1.1073116,0.18786044,-0.4874923,0.43691713,0.1368843,1.9707215,-0.31925726,0.26458254,-1.4892515,-1.6615251,0.7160263,-0.86277765
AAAGGATTCGGACAAG.1,0.23529536,-2.5631394,0.7387314,0.5382875,0.13749914,0.84057593,-0.1368061,-0.27798676,-0.06934972,-1.3085511,0.5715061,1.2939376
AAAGGGCCAGCACGAA.1,0.21542175,1.3103272,0.36235636,-1.3279727,0.99894667,0.09038915,-0.90298456,-1.825817,0.3643723,-0.15293238,-0.7180072,1.5859002
AAAGGGCGTGTTACTG.1,0.83007866,0.57859856,0.17168336,0.67487496,-0.5507763,-0.70326954,-0.6224115,1.4640396,-0.83013874,0.23439917,1.0558709,-2.3029492
AAAGGTAAGTGCAGCA.1,0.23316613,0.9467392,1.328359,-1.8323555,-1.0913764,-0.04034762,0.42167634,1.293783,-0.1649663,-0.30008316,0.7094738,-1.5040685
AAAGGTAAGTGCGCTC.1,-1.0022895,1.3348881,-0.15027782,0.22035518,0.30226982,0.11489247,-1.9995339,-0.6335377,1.121002,-0.16435482,-0.79394823,1.6505346
AAAGGTACATCGTGCG.1,0.24066928,0.99902064,0.054842576,0.27983057,-0.4446003,0.43597266,-2.3207073,-0.91127396,1.0100898,-0.9701691,0.11498532,1.5113399
AAAGGTATCCTTCTAA.1,0.8101515,-0.9942214,-0.28152865,1.3528997,0.0060772183,1.8935643,-0.5929789,-2.0343418,-0.0423701,-0.09346896,0.41176817,-0.43555132
AAAGTCCCATCATTGG.1,-0.69502157,1.7972981,-0.8467734,0.12881298,-0.22183411,-1.4556278,0.360871,0.9590927,0.20676902,1.4634398,-0.2524692,-1.4445578
AAAGTCCCATGCCGCA.1,-0.25554964,1.7930435,-0.10669015,-0.25253358,-1.2903812,-1.1529831,0.85256356,0.7887416,0.17180063,1.3184958,-0.30427432,-1.5622331
AAAGTCCCATTGGGAG.1,0.17364118,-2.0633016,0.36351654,-0.42742237,0.60647434,1.2639737,-1.2348291,-0.51326644,0.72173357,1.060346,-0.9748515,1.0239855
AAAGTCCGTCATGGCC.1,0.5840877,1.9284737,-0.917491,-0.24626547,-0.5217946,0.607644,-0.74158216,-1.671312,0.64573073,-0.20708936,-0.83637166,1.3759699
AAAGTCCGTGAAGCGT.1,0.6759635,-0.29783237,0.28014308,-1.5209296,0.15559334,0.8654899,-0.3518266,2.0017347,-0.73373806,-1.0571878,1.1098847,-1.127295
AAAGTCCTCCACACAA.1,1.7482572,-0.49109885,-0.47064984,-0.46757486,-0.7748965,-0.95807785,-1.3737565,0.94249356,0.42031687,1.9156711,-0.27322155,-0.21746281
AAAGTCCTCGGATACT.1,-0.51243246,-0.4019415,0.2302692,1.2054846,1.2658483,0.6153172,-2.10405,-0.4107997,-0.34522465,-1.1309155,0.14879927,1.4396449
AAAGTGACAGACCAAG.1,-0.17814104,0.24666107,0.76997167,-0.06635378,-1.5073167,-1.5290825,0.53438723,-0.00315837,0.79159135,2.166992,-0.19984078,-1.0257099
AAAGTGACAGCTATTG.1,-0.17639007,1.305793,-0.59448534,0.7390989,0.64998615,-0.9079701,0.45041335,1.3824538,-1.3578876,0.739163,-0.36471877,-1.8654566
AAATGGATCGATTGAC.1,0.25492278,1.7105429,-0.3259125,0.32526615,-0.46495122,1.0154809,-2.0892563,-1.0604093,0.7273807,-0.894178,-0.05258257,0.85369635
AAATGGATCGGTTGTA.1,-0.6591358,-1.3819971,0.44075966,-0.59934586,2.1738853,0.19004625,-0.0039122575,1.1076776,-1.2514626,-0.8249688,0.9237212,-0.11526752
AAATGGATCGTCGGGT.1,0.22456992,0.3443755,-0.5864125,-0.5291263,-0.9955109,-0.67685735,1.0799665,0.7321992,0.85622156,2.0396616,-1.0651196,-1.4239677
AACAAAGAGCTCATAC.1,-0.7242369,0.9113843,1.3765345,-2.0945477,-0.22795746,0.020892926,1.2584828,1.0788527,-0.344182,-0.7131953,0.35698837,-0.8990158
AACAACCAGTGCAGCA.1,0.3764984,-1.5295452,0.05451859,-0.28607082,1.9981265,-0.56643623,-0.8530113,0.42200997,-0.9210189,0.91590774,-0.91274273,1.301764
AACAACCGTAACATAG.1,0.71034294,0.6020358,-0.92460424,-1.1768678,0.35828775,1.1566706,0.25956523,-1.5866685,-0.5991539,-0.46490297,-0.36739048,2.0326858
AACAACCGTATACGGG.1,0.10446765,-0.6996998,1.1302761,-1.6880482,0.061412055,2.3485067,-0.6088378,0.40668947,0.10396691,0.3694388,-0.73098314,-0.7971887
AACAAGACAAGTGTCT.1,0.44628462,0.39390692,0.32680783,-1.8116461,-0.87790143,1.1571206,0.14768203,1.5148071,0.03452174,-0.70241994,0.9380563,-1.5672199
AACAAGAGTATCCTCC.1,0.79889846,-2.5145428,-0.63055587,-0.055437665,1.2067363,0.4657392,0.7931596,0.72173494,-1.2112552,0.57514495,-0.12916031,-0.020461636
AACAAGATCGGCCTTT.1,-1.1883187,0.93868077,1.8815622,-0.65888804,0.3664807,-0.46206442,0.18112803,0.66194135,-0.33304995,0.38722357,0.35320565,-2.127901
AACACACCACAGAGAC.1,0.60094243,0.6905621,-0.024928387,-1.0806401,0.124633335,-0.2847773,0.8522914,-1.3141754,-0.41187707,0.7025079,-1.7670738,1.9125346
AACACACCAGGCAATG.1,-0.4811651,-1.7154189,0.85165507,-0.059281733,0.5679025,-0.45200628,-1.3870881,0.08885887,-0.4418674,-0.22692746,1.4121497,1.843189
AACACACTCCTGTTGC.1,0.46421546,-1.5993073,-0.20127071,1.6662426,0.068232425,-0.7340373,0.1387923,1.126388,-1.3159723,0.18582895,1.2819417,-1.0810535
AACAGGGAGCTAAACA.1,-0.17183776,1.1922375,0.2514183,-1.9842379,0.06434313,1.7547575,-0.24727058,1.1588409,0.32868442,-0.82894516,-0.5203211,-0.9976694
AACAGGGAGCTGACCC.1,0.4993645,-1.6326681,0.4067622,0.4275326,-0.4501663,0.9646167,-0.08463601,1.1896782,-0.8742928,-1.8329195,-0.046793576,1.4335223
AACAGGGCAGAGAATT.1,0.06246662,0.5907034,-0.07990739,0.69376165,-0.78915024,1.0788889,-1.8875525,-1.1657995,1.2341499,-0.83134365,-0.3581877,1.4519703
AACAGGGGTAATCAGA.1,-0.5780337,0.9151454,0.5436299,-2.0235898,-0.61187613,0.31171688,1.2200665,0.93900794,0.80062795,0.68073,-1.2953624,-0.90206236
AACAGGGGTATACGGG.1,-0.26309043,0.4194853,2.1171324,-0.7639973,-0.6306146,0.41277063,1.3369842,-1.2942479,-0.1807892,-0.08587772,-1.5458324,0.47807688
AACAGGGGTGACTGAG.1,0.1641076,0.6990912,-1.7596917,0.021952279,-1.2983296,-0.63820773,1.5824561,0.88822794,0.49249637,1.2971675,-0.6109022,-0.83836776
AACCAACCACATATGC.1,-0.4177852,0.5934622,2.2379856,-0.8235098,-0.88838536,0.38855132,1.2438667,-1.1254796,-0.15327053,-0.09990885,-1.3559464,0.40042007
AACCAACGTGTCATGT.1,-0.27024415,0.99319357,0.7205776,-1.7813641,-1.5090168,-0.4827273,1.482767,1.138137,0.55883235,-0.11871032,0.20438404,-0.9358289
AACCAACGTTCGAAGG.1,-0.14894351,0.0763866,2.2153027,-2.085717,-0.7781429,0.43881643,-0.05750531,0.8045961,0.3895848,0.06253779,0.12865289,-1.0455685
AACCAACTCGCTGATA.1,0.9341253,-0.1428273,-0.4827595,1.2605215,-0.47357237,1.4657584,-1.2877666,-1.7558968,0.44804636,-1.0566405,0.18604982,0.90496165
AACCACAAGAGGTTAT.1,-1.1177601,-1.0784814,0.50328165,1.1320467,0.72891617,0.3020101,-1.6522015,-0.8146347,1.0753791,-0.6822301,0.050512485,1.5531613
AACCACACACGCTATA.1,1.0713995,1.5710316,-1.642708,-1.0068974,-0.062454138,0.041879367,0.18616442,-1.0486153,-0.22919115,0.5495276,-0.94283926,1.512703
AACCACAGTTCGGTTA.1,0.5562465,0.6689477,0.25176552,-2.151781,-0.4698508,0.70698214,0.114199966,1.7389439,-0.50650996,-0.90262616,0.92438996,-0.93070793
AACCATGAGTACGAGC.1,0.7218169,1.8050292,-1.9098489,-0.14787443,-0.36204267,0.5473095,-0.0013094533,-0.60997194,-0.20770992,0.40996206,-1.4469644,1.201604
AACCATGCAGCCTACG.1,1.1430117,1.4639202,-0.77617997,0.04770046,-0.3279484,0.745505,-2.2597494,-1.1338586,0.8640979,-0.10110035,-0.029468194,0.36406958
AACCATGGTAATCAAG.1,0.6951814,-0.6817203,-0.016631648,0.23330627,-0.5589769,1.1253027,-1.7457632,-1.0322766,0.91896874,-0.8791811,0.02155659,1.920234
AACCATGTCAAGTTGC.1,1.4151696,0.9570529,-1.7480752,-0.016627507,-0.2528924,0.7861207,-0.6821288,-1.6264719,0.528249,0.32647753,-0.7915908,1.1047171
AACCATGTCTCTCAAT.1,0.9968731,-0.67508066,0.23016441,-0.29839945,-0.42174733,-0.067478575,-0.6670399,0.77396286,-0.95425075,-1.8636919,0.99549454,1.9511935
AACCCAAGTAATACCC.1,1.2076136,1.6714624,-1.5261494,0.2870203,-0.17255574,0.7801738,-0.6632994,-1.7952472,0.11638096,0.14000577,-0.73011637,0.6847111
AACCCAAGTGTGAGCA.1,0.45574945,0.8696472,-0.18096702,0.069281325,0.39486533,0.20954597,-0.082630746,1.5018823,-1.4130381,-0.6879594,1.078097,-2.2144732
AACCTGAAGAGCATAT.1,0.52795756,-1.8546206,0.3929526,0.91176337,-0.5668824,0.53034794,-0.28898942,-0.23717034,0.06625142,-1.5984752,0.122094445,1.9947708
AACCTGAAGCGTCAGA.1,-0.4415818,1.26156,0.27669728,-1.305388,-1.4870158,0.024844054,0.26381832,1.1028715,0.15484668,1.7643636,-0.31050733,-1.3045084
AACCTGACAAATGAGT.1,0.6711486,0.19125059,-0.41534615,0.33750716,-1.7200811,-1.2031996,0.97987276,0.47609198,0.21247567,1.4173815,0.7776008,-1.7247021
AACCTGACAGTAGTGG.1,0.83246344,-0.86841947,0.45310512,-0.67856896,-1.8233842,0.8632873,-0.25173452,0.20082252,0.27103394,2.0872018,0.046179347,-1.1319865
AACCTGAGTCGAGTTT.1,-0.27618277,-0.9665034,-0.20784639,0.25710547,1.0502869,1.9325957,0.9667913,-0.08589635,-1.1256548,-0.92527694,0.870359,-1.4897777
AACCTGATCTCCGATC.1,1.3237606,1.2062509,-1.546492,-0.5850466,-0.4601764,-0.04601819,0.14994481,-1.3573744,0.27388966,0.8870913,-1.1691171,1.3232874
AACCTTTAGGATACCG.1,1.0919397,-0.13143077,0.14932154,-1.162751,-0.08197691,-0.03138015,0.12713213,1.6208991,-0.8741051,-1.6596845,1.6577808,-0.7057449
AACCTTTCAAACACGG.1,-0.69201326,0.74218297,2.5265357,-0.9101643,-0.18660027,0.5046326,1.1143231,-0.568077,-0.7571555,-0.7824006,-0.8331686,-0.15809496
AACCTTTGTCTAATCG.1,-0.59108627,-0.537804,-0.799612,0.61543715,1.3489401,0.98403597,0.714547,-1.6023638,-1.2422643,-0.67559975,0.22843587,1.5573342
AACCTTTTCAGCCTCT.1,-0.060854528,-0.637601,-0.54165566,-0.7534909,-0.5656511,0.7437974,1.1990114,1.9744788,0.2794923,0.535045,-0.13897167,-2.0336
AACCTTTTCATGCGGC.1,0.08070326,-1.2931532,0.5871025,1.0295789,0.25443876,0.6063962,-1.599138,-1.3024758,0.21263142,-0.3806517,-0.19590527,2.000473
AACCTTTTCGATTGAC.1,0.98769104,0.78876776,-1.2314361,0.0056706113,-0.48277986,1.255731,-0.6767108,-1.9063238,0.5500786,-0.5293975,-0.28448522,1.5231941
AACGAAAAGAAGTCTA.1,-1.3510723,-1.0189483,0.4815944,1.2315488,0.71054626,0.48605153,-0.94537187,-0.7700295,0.6111504,-1.1314551,-0.1688721,1.8648577
AACGAAAAGAGGTGCT.1,0.11064991,0.17417532,0.67373365,-1.017875,0.7310013,0.38783017,-1.7923157,1.6101108,-0.7438507,-1.3584492,1.2562369,-0.03124774
AACGAAAGTTAAGGAT.1,-0.34805965,1.1269495,-0.6493495,-0.143659,-0.48337388,-0.9100084,1.2263439,1.4322937,-0.00899392,0.631305,0.36632395,-2.2397716
AACGAAATCTCCAATT.1,1.4364552,-0.73547685,0.17461807,-0.31185615,0.6231534,0.483768,-1.0543585,1.4815801,-1.1432804,-1.5899835,1.1244832,-0.4891027
AACGGGACAGGCCTGT.1,-0.10711147,0.51081717,0.29695243,0.25085413,-1.1839759,-1.3133531,0.61066455,1.211161,-0.7166249,1.8183738,0.27050218,-1.64826
AACGGGAGTACGATTC.1,0.8943891,-0.16796522,-0.32983667,-1.9880733,0.9071043,1.1185241,-0.23581573,1.6250496,-1.5042758,-0.13813381,0.054426596,-0.23539314
AACGTCAAGGCCTGAA.1,0.2619615,-1.7645841,0.40307823,0.5274342,0.5701627,0.15202199,-0.1538968,1.0391914,-0.6796558,-2.0490909,0.20221564,1.4911621
AACGTCACATAATGCC.1,1.1985939,1.2327319,0.32370096,0.76991755,-0.46183813,0.504034,0.8163934,-1.6422011,-1.8618315,0.30707055,-0.9474307,-0.23914084
AACGTCACATCTTTCA.1,1.0021255,2.0202968,-0.77030474,0.50233394,-0.5455407,0.55480367,-0.10775324,-2.0902314,-0.49424046,-0.22310187,-0.54740936,0.69902176
AACGTCAGTGGTCTTA.1,0.97096175,-1.3920077,-0.3338497,1.3309702,-0.30326164,1.1631835,0.5601149,-0.89778626,-0.40809095,-1.7479361,-0.13849925,1.1962012
AACGTCAGTTGTCATG.1,0.45876423,-0.6322246,0.90933627,0.69501925,-1.6638194,-1.0057356,0.23959792,-0.75707984,0.24798207,1.9258078,0.74303246,-1.1606804
AACTTCTGTCATGCAT.1,0.231158,2.172471,-1.0274031,0.23687257,-0.770886,0.5648525,-1.3036551,-0.99269474,0.9363997,-0.1681366,-0.83518684,0.95620877
AACTTCTGTTCTCCCA.1,0.45796037,1.1905215,0.031740475,-0.80582094,-0.44958502,-0.15089573,1.3982706,-1.7434723,-0.0821912,0.10444785,-1.4728116,1.521836
AACTTCTGTTTGGAAA.1,0.7310701,0.22959362,-0.63444006,1.0484912,0.029299045,1.2029305,-1.5653716,-1.887019,0.36153367,-1.0252546,0.4984599,1.0107076
AACTTCTTCATCAGTG.1,1.2663033,1.4876511,-0.94751734,-1.946528,-0.6020781,0.39809293,0.75119615,1.1888196,-0.79702896,-0.54113114,0.0066510346,-0.26443085
AAGAACACAGAACGCA.1,0.6880106,-1.6300348,0.3675396,-1.2852381,-0.3818352,1.686771,-0.047277667,0.40636215,0.110570885,1.6268356,-0.9671933,-0.57451063
AAGAACACAGCATGCC.1,-0.42287108,1.1432391,0.55391824,-0.43793744,0.9630047,-0.19598313,-2.0660923,-0.9395769,0.73168534,-0.26095456,-0.73022366,1.6617919
AAGAACATCACGAACT.1,0.30491686,1.4197965,-0.6162481,0.33523306,-0.2834389,0.48005405,-2.1626832,-1.1399252,0.7680573,-0.01514316,-0.5719585,1.4813391
AAGAACATCCGTAGTA.1,0.6114418,-0.10736418,1.0504166,-0.29478222,-1.3378395,-0.15494244,0.2688573,0.061180245,0.33322102,0.7830315,1.2741297,-2.48735
AAGACAAAGATCACCT.1,0.78156334,0.33369404,0.6439939,-1.4348294,-1.2841969,-0.19877309,0.63880014,1.5233481,-0.035600297,-0.83338344,1.2895558,-1.4241723
AAGACAAAGATCGCTT.1,0.5199064,0.13627703,0.6774442,-1.2719619,-1.0501876,-0.8855023,0.49687985,1.5712785,-0.034894824,0.7824628,0.93887013,-1.8805722
AAGACAAAGCGCATCC.1,0.47898918,0.89366853,-0.42246512,0.38334477,0.41094488,2.2957733,-0.99273664,-0.71986127,-1.2850828,-1.1214601,0.6683692,-0.5894837
AAGACAAAGGCCCAAA.1,0.060088553,0.7883369,-0.04536986,0.5907304,-0.66645765,0.57176065,-1.7285515,-1.160629,1.2965182,-1.2394743,-0.10683026,1.6398777
AAGACAAAGGTACCTT.1,1.2319685,-0.5646461,-1.6282655,1.1226647,0.14783442,1.0298218,-0.004460882,0.011873776,-0.8910525,-1.6567496,-0.073751934,1.2747633
AAGACAAAGTTGTACC.1,0.38462493,0.42402986,-1.0867863,0.65509313,1.0142574,1.3207718,-0.2323349,-1.7970256,-1.0944477,-1.0970709,1.2370529,0.27183485
AAGACAACACTACACA.1,0.9131835,1.658908,-1.490919,-0.4555089,-0.462728,0.98224807,-1.0070176,-1.3391832,0.3729246,-0.037087668,-0.42841256,1.2935928
AAGACAACACTTGGCG.1,-0.63960916,1.9555469,-0.7481642,0.90999466,-0.28160223,-1.595198,-0.8830105,0.06684746,-0.4201395,1.4930547,0.5978811,-0.45560125
AAGACAACAGAGTCAG.1,0.8223805,-0.11503661,1.195122,-0.6566024,-1.3523065,-0.48732767,0.6472747,0.6266803,-0.4677485,0.39397505,1.4310418,-2.0374527
AAGACAACAGTGCGCT.1,0.28686115,0.28106734,-0.11523766,-0.53047013,-1.8069644,-1.3730125,1.3995396,0.8366123,0.47877327,1.2068276,0.6243009,-1.2882974
AAGACAACAGTTGTTG.1,0.5150031,-0.8389012,-0.6288223,0.6452733,0.67876726,1.8818052,1.1246222,-1.054235,-1.5847808,-0.62686753,0.62611234,-0.7379764
AAGACAATCACCGACG.1,0.54364234,2.3658607,-0.5838264,-0.52095884,-1.2301377,0.20988534,-0.97129387,0.2583954,1.2376549,-0.8830358,-0.7254771,0.29929098
AAGACAATCATGCTAG.1,0.904282,-1.8950051,-0.19048503,0.79641426,0.586028,1.3731167,0.27912283,-0.85842735,-1.5070341,-0.76354307,0.9612969,0.31423387
AAGACAATCTATTGTC.1,0.76846784,-1.0439893,-0.14838023,0.5309477,0.6902212,0.93545026,0.2735596,0.9262348,-1.3387946,0.40797234,0.3719643,-2.373654
AAGATAGCATGTGCTA.1,0.41420978,0.47971135,-0.42268112,0.6398963,0.26786536,1.1840019,-2.4712372,-1.5885764,0.5404076,-0.10734753,0.66721547,0.3965345
AAGATAGGTAGCGTCC.1,0.751395,1.5052968,-1.7083393,0.061407942,-0.8326214,1.2539154,-0.94860995,-0.97372055,0.9252574,-0.32203758,-0.60844773,0.8965041
AAGATAGGTATCAGGG.1,0.43431,0.0104562985,0.21605232,0.46678495,-0.012638716,-0.5246536,-0.8489736,0.9589975,-1.2267228,2.4613047,-0.6543897,-1.2805271
AAGATAGTCCTTCTGG.1,0.58973414,1.8612463,-0.9409381,-0.19879644,-0.505448,0.2875391,-0.8954985,-1.5930078,0.7333699,-0.24891983,-0.67840534,1.5891247
AAGCATCGTTGATGTC.1,0.11493511,0.47936964,-0.6442389,-0.053597074,-1.4275255,-1.0533501,1.5346886,1.0027663,0.21387729,1.4919794,-0.06030838,-1.5985963
AAGCATCTCAATCGGT.1,0.8354784,-0.47644433,-0.5942483,0.6100568,-0.74373376,1.3457745,0.098867245,0.26198184,-0.35021272,-2.5536509,0.64732087,0.9188101
AAGCATCTCGTCCTCA.1,0.28176728,-1.760269,-0.17724665,1.0139256,-0.06399236,1.9632263,0.88766164,-0.8151561,-0.8943636,-1.1729732,0.3230104,0.41440967
AAGCATCTCTACACTT.1,-0.08015825,-2.2991705,-0.32839534,1.042796,0.49839842,-0.19869429,1.3311996,0.30035892,-0.19931775,-1.4500114,0.32863575,1.0543586
AAGCCATCATAACAGA.1,0.047511227,-0.7336847,0.7704258,0.54794025,-1.5668669,0.5505612,0.2541121,0.75220543,-1.0589772,1.1618452,1.1279165,-1.8529887
AAGCGAGGTCTACATG.1,1.657945,-0.017868482,-0.7226781,0.18761194,-0.7241355,1.5609239,-1.6325175,-0.23805557,0.1109894,1.1511449,-1.2929468,-0.040413123
AAGCGAGGTTTACCTT.1,0.5877846,1.1169795,-1.1988965,-0.44191134,-0.5435824,-1.1274273,0.87102014,1.7567961,0.0009360075,0.37281325,0.36371595,-1.7582277
AAGCGTTAGGCCATAG.1,-0.2546545,0.71776086,0.7994757,-1.5980442,0.60599035,1.981755,0.5222401,0.675306,-1.0754582,-0.60698754,-1.125401,-0.6419828
AAGCGTTCATATTCGG.1,-0.64938754,-0.2792102,1.792399,-1.0459625,-1.5135789,1.0045637,0.13901313,0.34473175,0.8650296,0.99981385,-0.26569584,-1.391716
AAGCGTTCATGTGCCG.1,0.74321544,1.3780305,0.5223576,-1.6822302,-0.4974597,0.57035714,-1.100115,1.764487,-0.98152155,-0.25190002,0.22258802,-0.68780947
AAGCGTTGTTCAAACC.1,0.6812218,0.6324,-0.87303984,-0.31785524,-1.2612748,-0.9784508,1.2852781,0.79484224,0.4362146,1.5904087,-0.38591528,-1.6038295
AAGCGTTGTTTAGAGA.1,-0.6032861,-2.0657375,0.18666877,-0.08822881,1.2804325,0.5851581,0.1502911,-0.25601086,-0.59111184,-0.7741876,0.1031698,2.0728424
AAGGAATAGGTTTGAA.1,0.2064916,0.62856627,-1.0173509,-0.27714688,-1.4033345,-0.95727736,1.7440839,0.8720308,-0.07855615,1.2895145,0.38710538,-1.3941267
AAGGAATAGTTAGAAC.1,0.73821026,-1.3867236,0.038018916,-0.7826755,-1.1867737,0.3186745,0.07793518,1.1167467,-0.02605445,2.240442,-1.061677,-0.08612333
AAGGAATCAAAGGAGA.1,-0.044838753,1.6756155,-0.42008474,0.22606625,-0.36897466,0.14218067,-1.8087565,-1.1339724,1.0722426,-0.5278101,-0.43406528,1.6223974
AAGGAATTCGCTAAAC.1,1.5137489,-1.2786348,-0.8073195,0.42380273,-0.3310606,0.10957231,1.2883259,0.6715394,-1.7354912,-1.0977112,0.7221637,0.5210641
AAGGAATTCGGTATGT.1,0.7593039,1.5362557,-1.6521938,0.000103469545,0.1988864,1.036047,-0.8172208,-1.6325332,-0.27034163,0.10573695,-0.5074039,1.2433599
AAGGAATTCTAGACCA.1,0.0010756312,1.0778784,0.08373412,-1.1361858,-1.6481378,-0.97680676,1.1249751,1.5385357,0.49618724,0.16054203,0.5623035,-1.2841014
AAGGTAAAGCCTCAAT.1,0.8257856,-0.7235814,-0.2876998,1.3686345,-0.4763758,1.5061748,0.30560067,-1.1408433,-0.38719574,-1.8353236,-0.31003866,1.1548628
AAGGTAAGTCTGTGGC.1,-0.18612093,1.2640305,0.84237576,-1.6857915,0.43737656,-0.21079242,0.007027494,-0.96015126,0.1683759,-0.5122153,-1.1660961,2.0019813
AAGGTAATCATTCGGA.1,1.1836759,0.69984066,-1.8708736,-1.1302587,1.1291915,1.7286407,-0.5801286,-0.7762177,-0.31486484,-0.14524771,0.09290915,-0.016666818
AAGGTAATCTACTATC.1,-0.05960435,1.0454242,-1.0486376,-0.5261661,-0.23634402,0.24726486,1.0300723,1.8248535,-0.021743443,0.1061368,-0.12720446,-2.2340517
AAGTACCAGAACGTGC.1,-0.15520532,-1.0134457,0.9318982,0.2226634,0.0865996,-0.66274536,-0.85177636,0.8413582,-0.27427456,-1.9897366,1.5137533,1.3509113
AAGTACCAGGCAGCTA.1,0.8191038,1.8165989,-0.9948026,-1.8498088,-0.5025679,-0.08042002,-0.40095398,0.29410106,-0.074418165,-0.8704385,0.35229966,1.4913064
AAGTACCCAGCTCATA.1,0.6210619,-0.27582946,-0.7743142,1.285967,-0.17082137,1.7112503,-0.15996794,-2.1872575,0.0018985702,-0.8468733,-0.09477874,0.8896647
AAGTACCTCGCTACGG.1,0.8911347,0.3328906,-1.175272,-0.14884041,0.34330896,0.42212945,-0.6448588,-1.0702883,-0.18039174,0.99791163,-1.724906,1.9571819
AAGTCGTGTACCGTCG.1,-0.3729725,0.78109044,-1.0258129,-0.15779455,-0.7034595,-1.029315,1.5164802,0.88914824,0.5202166,1.7111747,-0.88491875,-1.243837
AAGTCGTTCGGCGATC.1,-0.27660105,-1.5957218,0.31796834,0.7037856,-0.0018058132,1.1735051,-0.64682686,-0.91902703,0.2791369,-1.103929,-0.12769806,2.197214
AAGTGAAAGTGAGCCA.1,0.00879027,1.4802793,1.3487093,-0.7979752,-0.65589356,0.42781237,1.4404535,-1.3264707,-0.6871625,-0.19561256,-1.4834827,0.4405523
AAGTGAACAAGCCCAC.1,0.4001288,1.4061007,0.18619512,-1.4820145,-0.8161835,0.87750435,0.13684775,1.4697043,-0.5887493,-1.1977493,0.8430587,-1.2348433
AAGTGAACACAGGATG.1,0.082554325,-2.4373107,0.6098955,0.97359264,0.008204036,1.1134022,0.14119798,-0.7244995,-0.52024436,-1.0180955,0.69545907,1.0758443
AAGTGAAGTCTGCAAT.1,0.4090519,0.77530617,-1.5548006,-1.2312413,0.9735433,0.7096765,1.2341387,-0.2692715,-1.4827045,-0.82078785,0.0858931,1.1711963
AAGTTCGAGAGAGTGA.1,-0.008551554,1.5369745,0.97463244,-1.250447,-0.367528,0.046393402,0.3648627,-1.269707,-0.46434817,-0.5779745,-0.93716407,1.9528569
AAGTTCGAGAGCATAT.1,0.2946213,0.29110575,0.13916016,-0.17965232,-1.7398077,-0.8181135,1.4744037,0.41475764,0.5863007,1.2292589,0.26041117,-1.9524457
AAGTTCGCAGGTGTGA.1,0.20629446,-1.1199547,0.41815716,0.3025438,0.5765095,0.7831325,-0.72284037,1.2964255,-1.176413,-1.1400393,1.7777647,-1.2015798
AAGTTCGGTATAATGG.1,-0.55039036,2.0177753,1.8838885,-0.9964792,-0.66247076,-1.2091324,-0.055441223,0.3337536,-0.07834348,0.027331641,0.28076836,-0.99126023
AAGTTCGGTCGAATGG.1,1.4197427,0.85829115,-0.93742937,-0.09585374,-0.01933282,0.5341213,1.070577,-2.183768,-0.7476414,0.62371254,-0.9942247,0.4718052
AAGTTCGGTGAGATCG.1,0.6725558,1.64786,-0.49488872,-1.4727587,-0.75182974,-0.50873756,0.25176233,1.9551762,-0.47031832,0.04152785,0.3086182,-1.1789672
AAGTTCGTCTGACGCG.1,1.092942,1.5011842,0.6239584,-1.1931593,-1.944599,-1.0720648,-0.38277805,0.63461953,0.02105908,0.3613198,0.90814793,-0.5506295
AATAGAGAGAAACTCA.1,-0.31350142,-1.8275757,0.08554168,0.7195998,-0.116742454,0.9959893,0.8040925,0.4402025,-0.5383875,-2.0039203,0.46170077,1.2930007
AATCACGCACGGTGAA.1,-0.038510192,0.12457801,1.5821731,-1.096615,-1.5457311,-0.21985053,-0.23591484,0.58504736,0.5166365,1.8708179,-0.2789353,-1.2636963
AATCACGCATCCAATG.1,0.69230884,-1.0112648,0.8725445,0.81500876,-1.5375723,-0.7661627,0.39272463,0.031551402,-0.022945438,1.3235973,1.0018502,-1.7916406
AATCACGGTCGGAACA.1,0.8094776,0.1716815,-0.66780365,1.0143037,-0.43692642,1.591798,-1.1005359,-1.890275,0.38490337,-1.0077206,0.051685292,1.0794121
AATCACGGTCGTGCCA.1,0.9704918,0.9383202,-1.5297413,0.6508362,0.76523197,1.2728885,0.7422087,-1.4067442,-1.4074757,0.10395156,-0.75199616,-0.34797195
AATCACGGTTATGACC.1,0.4705966,0.50408435,-0.30822024,-0.935907,-1.0516496,-0.080101214,1.3683461,1.8067944,-0.070555374,-0.6404767,0.75776446,-1.8206758
AATCACGTCACATCAG.1,-1.0769589,-0.2742354,0.75289,0.73662245,1.2802374,-0.19565473,-2.1056504,-1.006356,-0.26829392,-0.049415354,0.99792206,1.208893
AATCACGTCCCTGGTT.1,-0.4502992,1.2000582,1.18159,-1.8571017,-0.61083233,0.81498176,0.43905383,1.1268455,0.33425966,-1.288325,0.20468551,-1.0949163
AATCACGTCTCGTGAA.1,-0.64956826,-2.1444745,-0.68747413,0.46542194,1.9535137,0.7991687,0.049395353,0.5809102,-0.81007487,0.8464428,-0.34528455,-0.05797637
AATCGACAGCATCAGG.1,0.29126868,0.64798886,0.83604026,-0.894382,-0.676907,0.5674707,1.1618937,0.8306429,-0.5835301,-1.5372854,1.1388093,-1.7820098
AATCGACAGCCTGCCA.1,-0.02254641,-1.830931,-0.25245732,1.2521244,1.0653882,1.7006394,-0.52446485,-0.56707215,-0.7292032,-1.121335,0.70511204,0.3247461
AATCGACAGGGAGGCA.1,-0.06345831,0.8410378,1.3629748,-1.5584334,-0.6240033,0.32879445,0.5855821,1.2230098,-0.4052462,-0.6566614,0.81295365,-1.8465499
AATCGACAGTTACGAA.1,0.97698534,0.66978943,-0.49559787,-0.45072663,0.28858188,0.0540285,0.935743,-1.9818376,-0.6578926,0.6774766,-1.4858882,1.4693384
AATCGACCAGACAAAT.1,-0.43189248,0.6693725,2.103089,-1.7757294,-0.7893905,-0.13425055,1.53758,-0.3473532,0.37662408,-0.46713677,-0.49025843,-0.2506542
AATCGACCAGACCGCT.1,0.030804398,0.3914043,-0.52698475,-0.62197095,-0.77365214,-0.5687918,1.2146472,1.1269305,0.11472249,1.6185242,0.19506201,-2.2006955
AATCGACCAGAGTCTT.1,0.39433634,0.6904879,1.4120226,-1.673337,-0.7973257,-0.16454785,0.49174148,1.0917935,0.08531461,-0.5807644,0.8819152,-1.8316368
AATCGACTCTTCGGTC.1,0.37006855,0.6029661,1.3780278,-1.2858369,-1.4129354,0.3152858,-0.93845505,1.0314895,-0.13542366,-0.6125699,1.6237022,-0.9363193
AATCGTGGTTTACGAC.1,-0.084268734,1.0364516,0.8204646,-0.43271342,-1.4810112,-1.1627189,0.6168299,0.07077491,0.17813343,1.7899143,0.31860283,-1.6704592
AATGAAGCAGTCTCTC.1,0.8551856,-1.7161967,0.24039513,-0.93594104,-0.26822034,0.46154058,-1.0404506,-0.5208119,-0.20059647,0.2645096,0.55020034,2.3103857
AATGAAGGTCCTGGTG.1,-0.30451983,-1.5188999,1.1680204,0.49794334,-1.6556523,0.49788848,0.646775,-0.5732494,-0.41004074,1.8406018,0.4878886,-0.67675555
AATGAAGTCTCAAAGC.1,0.43555328,-1.3722175,0.5890611,0.50909525,0.03128703,1.3206979,-1.5449361,-1.0178117,0.13305292,-1.2656938,0.81427944,1.3676319
AATGACCAGAATAACC.1,0.3113181,0.8358059,0.23535088,-0.8968194,-0.3063203,0.111168705,0.73871803,1.6355668,-0.6642898,-1.7333927,1.1961567,-1.4632629
AATGACCAGACGTCCC.1,0.6034387,1.1827298,0.19007683,-0.09022001,0.10745736,1.0534014,-1.6975944,0.11387554,-1.26287,-1.5784916,1.4442664,-0.06606985
AATGACCAGAGGCGTT.1,1.3488777,-1.1768382,-0.023787295,-0.043478046,-0.23038758,0.11735176,-0.15485571,1.3846633,-0.88376266,-2.0074391,1.3734738,0.29618192
AATGACCAGTGGACGT.1,0.4813973,-1.3092324,-0.46067247,1.4616375,0.16047922,1.7640196,0.51561373,-1.2880841,-0.63071066,-1.3241657,-0.06824928,0.69796723
AATGCCAAGATGATTG.1,0.98620516,1.0435452,-0.42407095,-0.29759154,0.025622882,-0.041682914,1.1562905,-2.0281754,-0.61654574,0.6324219,-1.5106765,1.0746573
AATGCCAAGTAGGCCA.1,0.83365864,0.22337355,0.28830907,-0.75425196,-0.69351137,0.14124164,0.08373003,1.6151974,-0.28466135,-0.9335673,1.5289259,-2.0484443
AATGCCACAAGAAACT.1,0.8571842,-1.5472277,0.28403625,0.75113267,-0.26573917,-0.089606896,0.42927083,0.9534001,-0.46358332,-2.2050974,-0.10590129,1.4021318
AATGCCACATCCGATA.1,0.067952186,0.8708185,-0.16314489,0.6919848,-0.46071762,0.3444031,-2.4853485,-0.66052336,0.50992334,-0.9738677,1.2487998,1.0097203
AATGCCAGTCGCATTA.1,0.06249935,0.68462896,0.071961544,-0.75266737,-1.8201218,-1.0447426,1.5724425,0.74777085,0.7472859,0.9016792,0.26986533,-1.4406021
AATGCCATCGCCAATA.1,0.6921363,0.72566193,-0.14536622,-1.3527137,0.37454623,-0.0956606,-0.115341604,-0.9985443,-0.43776917,0.67308974,-1.5451853,2.2251465
AATGGAACAACCCGCA.1,1.2421036,2.009342,-1.6126338,-0.40834618,-0.37770614,0.67016137,-0.88158906,-0.9681495,0.2819774,0.15539514,-0.8415114,0.73095703
AATGGAATCAGCTTCC.1,1.0528134,-1.4531566,-0.58753127,0.6621409,-0.418179,1.4598727,0.5753615,-1.4739162,-0.036468845,-0.8512173,-0.436475,1.5067558
AATGGCTAGGGAGGTG.1,-0.22425199,0.90194535,0.18428941,-0.77273804,-0.19376068,-0.13761924,1.0243227,-1.9582098,-0.21042243,-0.18387839,-0.67322254,2.2435455
AATGGCTAGTAAACTG.1,0.8636621,1.7700082,-1.252536,0.24349937,-0.6088072,0.9383712,-1.1304326,-1.550166,0.67701155,-0.48973572,-0.3293643,0.8684896
AATGGCTAGTCAAGCG.1,-0.50670105,-1.9446131,0.9096839,-0.26443258,0.6635561,0.8386532,-0.39999384,1.3860213,-0.5133535,-1.2261611,1.3986131,-0.34127244
AATGGCTCATACTTTC.1,0.12603775,2.0489826,-0.9601072,-0.92786276,-0.65034693,-0.8629161,-0.7351085,-0.094198674,0.49087465,0.058727417,-0.45284298,1.9587604
AATGGCTGTAAGATTG.1,1.1522554,1.0974265,-1.0053188,-0.007934853,-0.6932747,0.3532357,-0.24666956,-1.7128754,0.49157295,0.012462063,-1.2135797,1.7727002
AATTCCTAGCAAATCA.1,-0.26596308,0.5072344,1.3152738,-1.5542235,-0.8037388,0.4241752,0.59302586,1.5629749,0.11363517,-1.286527,0.7105577,-1.3164243
AATTCCTAGTTTCGAC.1,0.1717511,1.6636568,-1.1722105,-0.062826894,0.2647929,0.8384479,-1.3404287,-1.2487426,0.057253193,-0.43888512,-0.527593,1.7947851
AATTCCTCACTAGGCC.1,-0.3502582,0.47900432,1.5535356,-1.0689915,-0.71815103,1.1427468,1.0925387,0.8998719,-0.61031735,-1.610525,0.29267904,-1.1021334
AATTCCTCACTTGAGT.1,0.26183054,0.6523435,0.444327,-0.3193661,-1.7142955,-0.8635601,1.4379505,1.0078473,0.17560233,-0.011576209,0.8489822,-1.9200854
AATTCCTGTAAGCTCT.1,0.50622326,-0.5228498,-0.4026843,-0.31523418,1.5519159,1.9337308,-1.0546842,-1.0162663,-1.276963,-0.18261431,1.0782588,-0.29883263
AATTCCTGTCCTTAAG.1,0.17331325,1.2085192,-0.5797981,-1.0095947,-1.0461059,0.85154927,0.3785045,2.1082473,-0.07097102,-0.547788,0.09381654,-1.5596924
AATTCCTTCCATTGGA.1,-1.5003474,1.8971599,-0.112156734,-0.4012035,0.3653427,-1.1837529,0.90282923,1.3859262,-0.18946785,0.28596777,-0.20736377,-1.242934
AATTCCTTCGGAGTGA.1,0.2877602,-0.4323542,1.1919119,-1.7553463,-0.8637841,1.067138,0.6887964,0.7818752,-0.21468483,1.3869593,-1.0995109,-1.0387605
AATTTCCAGGGTACGT.1,0.6290437,-2.2839346,-0.5620982,-0.60368353,-0.017988147,-0.5650767,0.10774728,1.2060603,-0.7560597,1.6067678,0.6027536,0.63646835
AATTTCCCACTCAAGT.1,0.20286241,-0.5929793,0.13368295,0.9626711,0.58338505,1.3869078,0.8334465,-0.2208229,-1.1655684,0.08595895,0.2823809,-2.4919252
AATTTCCCAGATACCT.1,0.63550425,-1.1870737,0.03795057,1.0789406,-0.51560783,1.5160158,-1.0004852,-1.0837078,0.13026908,-1.4655303,0.48021236,1.3735123
AATTTCCGTGACAGCA.1,0.051500395,1.0217842,1.4206157,-1.4502927,-1.2637705,-1.0340284,0.5169743,0.7677248,0.09338007,0.1175173,1.1554527,-1.3968577
AATTTCCGTGGCGTAA.1,-0.40196174,0.91997254,-0.86025023,-0.8939377,0.56048405,-0.06619405,-0.9301255,1.7855024,-0.4086774,1.8134362,-1.2455083,-0.27273995
AATTTCCGTTAGGCTT.1,0.81849897,0.31300974,-0.31461442,-1.168853,-0.89215475,1.002819,1.1235905,1.5117608,-0.4803173,-1.0559852,0.7338229,-1.5915768
ACAAAGACAAGTCCAT.1,0.24420086,-0.49499846,1.8505296,-1.2690125,-0.8954027,0.3430128,0.43229467,0.22021888,0.56635416,1.4278843,-0.891924,-1.5331577
ACAAAGAGTTTATGCG.1,0.24338455,-1.3988981,0.6782556,-0.3257037,-0.9194608,1.4701833,-0.4986754,0.20563653,0.3641835,1.1824968,0.9289129,-1.9303151
ACAAAGATCTTTACAC.1,0.8476717,0.82336456,-0.0802483,-0.44446376,0.057498924,-0.37424663,1.4510087,-1.9126552,-0.59025073,0.65498334,-1.5619717,1.1293089
ACAACCAAGAGGACTC.1,0.35756332,1.2156014,-0.46930683,0.43771955,-0.05464104,-1.0695952,-1.4893283,0.26805145,1.4795167,1.1588582,-1.7330439,-0.10139552
ACAACCAAGTCAGGGT.1,-0.41318667,0.6313633,-0.6563765,-1.2999688,1.0323336,-1.2641646,-0.2095919,1.3280797,-0.3731574,-0.581208,-0.26554614,2.0714233
ACAACCAGTCCGAAGA.1,0.6987907,0.43253618,0.20385876,-0.6771902,-1.3737706,0.75350523,0.055649437,1.2957032,-0.9949191,-0.40784836,1.6698519,-1.6561674
ACAACCAGTCTAGGTT.1,-0.48602337,1.9083023,-1.1995666,-0.8628737,-0.649114,-0.536635,1.2302351,1.4361829,0.13584666,0.3449201,-0.09366257,-1.2276117
ACAACCAGTGACGTCC.1,-0.16846004,-1.2464521,0.8541271,1.3127937,-0.03150648,0.7860834,-1.5534691,-1.0544618,0.02825458,-1.144801,0.95074916,1.2671425
ACAACCAGTTCTCACC.1,1.0975821,-0.59691113,1.1329052,-0.81185967,0.254286,1.2040836,-0.6711492,0.7917396,-1.39999,-0.51178825,1.0903239,-1.5792222
ACAAGCTCAGCTACCG.1,-0.28237504,0.2771119,-0.012750911,-0.7269031,-1.5684791,0.20804244,1.5180006,1.1466951,-0.59160423,0.23881333,1.4400845,-1.6466355
ACAAGCTGTCGAATTC.1,-0.9545183,1.344744,0.35731196,-0.76635015,0.14299913,-0.5211984,0.9783217,0.5346655,0.43877977,1.4845495,-1.6074483,-1.4318562
ACACAGTAGAATCGCG.1,0.45859897,1.2379247,0.5089418,0.43688077,-1.4240961,-2.0118728,-1.2488319,1.2879964,0.62458646,0.15350814,0.21088468,-0.2345212
ACACAGTAGTCGGGAT.1,0.24183068,-1.5363013,-0.1198553,0.23325388,-0.8837504,-0.18755335,1.0595807,1.917168,-0.17072311,-1.4881345,-0.31306744,1.247552
ACACAGTCACATACTG.1,0.3572815,0.887402,-0.25142413,0.24497676,0.09633227,0.4445191,-2.2981496,-0.6261334,0.46490863,-1.4382554,0.53372383,1.5848182
ACACAGTGTTTCACTT.1,-0.30128777,1.3762956,-0.48509032,-0.67739445,-1.7454824,-1.1352553,1.380339,1.1858968,0.44614708,0.6484389,0.29177472,-0.9843816
ACACAGTTCTGCTCTG.1,-0.41510218,-1.5105283,0.3212648,1.4653426,-0.2232205,0.9249921,-0.6125636,-0.50078845,0.19900705,-1.8240473,0.9640735,1.2115705
ACACCAACAATAACGA.1,0.85064644,1.2672354,-1.464257,-0.39092177,-0.33257607,0.60273015,-0.6231653,-1.2704831,0.5198524,0.33083028,-1.2260759,1.7361845
ACACCAACACGGATCC.1,0.616034,0.5821138,0.9546018,-0.948192,-1.4465317,-0.07687758,0.57743657,1.6155639,-0.4543516,-0.7806012,0.98604536,-1.6252415
ACACCAATCGGTAAGG.1,-0.26411942,1.5914222,-1.125181,0.3950492,-0.7448615,0.6826046,-1.1809736,-0.87886304,1.4089384,-0.3141038,-0.9276278,1.3577157
ACACGCGCACGCAAAG.1,1.1875986,-0.44550088,-0.44774032,0.13076527,-0.30682433,-0.012624706,0.84417677,1.1105635,-1.1127968,0.2692341,1.135437,-2.3522882
ACACGCGGTGACAACG.1,-0.18626712,-2.025278,-0.004861402,0.17814593,1.4621159,1.1026522,1.1022828,0.19401711,-1.3805908,-0.43805838,0.74877524,-0.75293314
ACACGCGGTTGCACGC.1,0.7202368,-0.03304005,-0.9346104,0.87041366,0.123344205,1.8597049,-0.8251617,-2.1515975,0.27125755,-0.35731173,-0.3878569,0.8446215
ACACGCGTCCGAGTGC.1,1.3273517,1.3778255,-1.8518289,-0.4738236,-0.39829716,0.74131167,0.21629064,-0.36455685,-0.2536631,0.44096142,-1.6554034,0.8938321
ACACGCGTCTTGGATG.1,0.06522716,-1.7124442,0.38065863,-0.9437675,1.4236909,1.9821584,0.24743743,-0.14442746,-1.1214677,-0.43759054,0.6335703,-0.3730455
ACACTGAGTGAGCTCC.1,1.5470427,0.78824127,-1.021556,0.21840091,-0.2528577,1.2217314,-1.2629002,-1.6057104,0.11992137,-0.054288946,-0.8740362,1.1760117
ACACTGATCATTCGTT.1,0.096144356,-1.5001786,0.22582674,0.2518335,1.1435108,0.3623747,1.2437254,0.4329048,-1.7960538,-1.5762719,0.80225855,0.31392545
ACAGAAAAGTAGAGTT.1,-0.923718,0.98991156,0.9452197,-1.2204332,-1.3695997,-0.77318627,1.1893128,0.696746,0.8432095,1.0272503,-0.12897685,-1.2757356
ACAGAAACACTTGACA.1,1.3366042,1.8104506,0.58731055,-0.9246102,-1.306512,0.73844886,0.046313494,0.7971494,-0.91708213,-1.2192444,-0.28959823,-0.6592301
ACAGAAACAGGTGTGA.1,0.19749576,0.48554122,-0.23174024,-0.52891916,-2.0350308,-0.2762475,0.9651458,1.3599789,0.42280585,1.2757751,-0.02670226,-1.6081024
ACAGCCGCATATCGGT.1,0.88838404,1.7331306,-1.2929782,-0.2779133,-0.13279481,0.87899405,-0.1712219,-1.7547988,0.1747742,-0.1125336,-1.0876036,1.1545612
ACAGCCGGTGTTAAAG.1,0.95581955,-0.87059194,0.80130994,-0.8590531,-1.185314,0.7155376,-0.07616129,1.6059827,0.04408584,0.15181135,0.69953287,-1.9829594
ACAGGGACACCGTGGT.1,0.25436383,1.1766232,1.4301857,-0.027234022,-0.6366701,0.26591033,1.4008259,-1.6382821,-1.0445321,0.13494879,-1.4968115,0.1806723
ACATCCCAGACTTCGT.1,-0.008642792,1.4898936,1.804655,-1.7328938,0.23898502,0.6803246,-0.16929914,0.5721743,-0.8327619,-0.4938589,-0.2702997,-1.2782762
ACATCCCAGCACTAAA.1,1.8896433,0.93981016,-0.876748,-0.18798062,-1.5778346,1.2252258,-0.9181502,0.25265554,-0.19863974,-1.1997443,0.049146354,0.6026164
ACATCCCAGGGTGAGG.1,-0.05550563,-2.5554562,0.28597245,-0.11891624,0.7958836,-0.24378335,0.26575968,0.4948731,-1.057216,1.5560193,0.8744883,-0.24211904
ACATCCCCAAATACGA.1,0.2126991,0.88861513,0.106961176,-0.26077354,1.0543046,-1.0054293,-0.8092041,0.95017433,0.25733846,1.6426097,-1.6382687,-1.399027
ACATCCCCACCTATCC.1,0.764241,0.7364193,0.77776176,-0.7757539,-0.21923085,0.66287243,0.18804163,1.3834615,-1.4801286,-1.3095112,0.87272584,-1.6008989
ACATCCCCACGTATAC.1,0.47684756,-1.7608813,0.07707465,0.34645763,-0.28685945,0.78029364,1.1268762,0.45513868,-0.7771707,-2.0056717,0.2730995,1.2947955
ACATCCCCACTACCCT.1,0.14436729,-0.062324215,1.1499192,-1.2751603,-0.29119855,0.8751689,0.0042286334,1.5748594,-0.36434454,-0.7963561,1.0152587,-1.9744184
ACATCCCGTGATGGCA.1,0.33141094,0.18421346,1.7510314,-0.32106638,-0.06401914,0.13776475,0.10681772,0.34237164,-0.8306212,1.2344576,-0.3882573,-2.4841037
ACATCCCGTTCCACAA.1,1.4062293,1.3475716,-0.20704198,-0.091590784,-1.5255879,1.2020996,-1.0896873,-0.19779918,-0.4737107,-1.4954306,0.7397327,0.38521537
ACATCCCTCACCTGGG.1,-0.35753798,0.10898553,0.3885132,-1.2906601,-1.4410383,-0.68399966,0.5932597,1.1854672,1.0010159,1.8560473,-0.24991597,-1.1101369
ACATCGATCCCGAACG.1,0.3662333,1.4620295,-0.6654464,-0.72896284,-0.17539929,0.76516867,-1.501456,-1.4187807,0.58511305,0.47212017,-0.79543215,1.634813
ACATGCAAGAAGAACG.1,1.0768191,0.4099607,0.35775954,-1.5825605,-0.44505715,1.3265798,0.19166453,0.8003511,-0.07357174,-1.4324188,0.940093,-1.5696193
ACATGCAAGAGCGACT.1,0.55443066,-1.9115824,-0.016370716,-0.16613649,0.859956,1.082086,0.17842557,-0.25969988,-1.7596873,-0.6609974,1.412658,0.6869181
ACATGCAAGCCTGAAG.1,0.20561461,0.4481234,0.33882555,0.6200293,-0.74956894,0.667707,-1.7562208,-0.7821247,1.2551256,-1.3061885,-0.63515353,1.693831
ACATGCACAGGTCCCA.1,-0.22730207,1.2437788,0.5747916,-0.31044698,-0.42790586,0.7268819,-2.4372041,-0.14899436,0.5140399,-1.2113577,0.6089528,1.0947661
ACATGCAGTCCGTACG.1,1.0010381,0.5104088,-0.61657155,-1.2969387,1.4125181,0.04681065,-0.5504696,1.6005526,-1.8616201,0.31113186,-0.059875168,-0.49698502
ACATGCAGTTCACGAT.1,-0.2896635,1.6876673,0.36743766,-1.2992963,0.6850686,1.0245289,-0.4169064,1.3932359,-1.1509229,-0.44555542,-0.11533238,-1.4402614
ACATGCATCACTTATC.1,0.31068197,-0.25717562,0.42363524,-0.54309046,-1.8628651,-1.4096783,1.2144358,0.6853547,0.92506087,0.9487298,0.8096902,-1.2447788
ACATGCATCCATACTT.1,0.020977164,0.20353793,0.10218484,-1.3692489,-1.824448,-0.7592675,1.4796175,1.1865255,0.46270737,0.6696417,0.88684326,-1.059071
ACATTTCAGGATTCCT.1,-0.2546507,-1.1420989,0.064487025,-0.86211306,2.5961118,0.429349,-0.43217483,0.24664752,-1.0797815,0.0041047055,-0.63734096,1.0674601
ACATTTCAGTATGTAG.1,0.6917713,-1.1416079,-0.34328243,1.4257574,-0.10674243,1.7182051,0.4969115,-1.1641318,-0.708448,-1.5686173,-0.03345865,0.733643
ACATTTCCAAGCACAG.1,0.65309733,1.937469,0.6154887,-1.1969259,-0.9739615,-0.3833767,-0.20522271,1.0321751,-0.41943073,0.4511433,0.31363794,-1.8240938
ACATTTCGTAGATTGA.1,0.1894115,-0.21027233,0.19658868,-0.21638405,-2.446894,0.7242412,0.013949085,0.5334648,-0.08082571,1.5247318,1.0436887,-1.2716995
ACATTTCGTATCAGGG.1,0.2444071,-1.3741648,-0.6830981,0.07797335,1.5032107,1.7888901,0.60955673,-1.6533922,-0.8677418,0.24654111,0.36586007,-0.25804234
ACATTTCGTGAGGATC.1,0.33805433,0.09650176,0.55174524,-1.3413986,0.16896354,0.7392901,0.7812418,1.7088972,-0.823216,-1.5055277,0.75341684,-1.4679685
ACATTTCTCGTGGCTG.1,-0.23090664,0.24129196,0.46683025,-0.14835805,-2.57165,-0.61986226,0.06877173,0.766328,0.83644223,1.6022474,0.389231,-0.8003655
ACCAAACCAAAGGTTA.1,0.36870328,1.3472197,-1.1114022,-0.87016195,-1.2330117,0.28168893,-0.5580287,-0.50823474,1.3244594,1.0370736,-1.2749754,1.1966697
ACCAAACCAATGCAAA.1,1.5157166,1.4600805,-0.17182697,0.121048994,-0.31014872,0.45859382,-2.5616016,-0.62651366,-0.18034603,-0.15830915,-0.0029527247,0.45625904
ACCAAACCACGAGGAT.1,1.1850967,1.7857747,-1.2572011,-0.19038187,-0.96953523,0.83560663,-0.5249361,-1.432093,0.61914515,-0.20607066,-0.7555633,0.91015804
ACCAAACTCATCCTGC.1,-0.016699294,0.5704811,0.22699381,-1.1605719,-0.5422061,-0.17692651,0.16035056,1.733852,-0.8600927,0.35943985,1.5856372,-1.8802582
ACCAAACTCCACGAAT.1,-0.634031,-1.4001678,0.61634034,0.93392897,0.76389515,0.6097393,-0.9640446,-0.65761226,0.04041383,-1.543368,0.3469783,1.8879275
ACCAACAAGACGCCAA.1,-0.57506335,0.44497344,-0.8382546,-0.54300505,-1.1087352,-0.48516327,0.96638846,0.9091351,0.5327634,2.3616064,-0.7997563,-0.86488914
ACCAACAAGAGAGCAA.1,0.29681852,-1.1735942,-0.72172683,0.5271817,0.7088987,0.38714817,0.9295224,-0.6739772,-0.97515756,-1.4125401,-0.08608104,2.1935074
ACCAACAAGCGGACAT.1,0.16843306,1.3834456,0.7440539,-1.4891001,-1.617618,-0.64823884,0.9925289,0.9731392,0.09917397,0.5215369,0.27308947,-1.4004444
ACCAACACATTGTCGA.1,-0.21214879,0.27777013,0.18374014,-0.013669824,-1.6923103,-1.5707098,1.2790393,0.19139145,0.5681619,1.7873319,0.30923328,-1.1078293
ACCAACAGTGGCATCC.1,0.88641006,0.7467186,-0.5313145,-1.6452188,-0.9485622,-0.6436243,0.72502136,2.0485601,-0.15861581,0.36774528,0.32215086,-1.1692706
ACCACAACAAACGAGC.1,0.5766366,-2.0662992,0.5151682,0.51801765,0.65699315,1.3323563,0.0063227266,0.3564791,-1.5118406,-1.2095538,0.882241,-0.05652114
ACCACAAGTGCGCTCA.1,0.5951728,0.80149007,0.5189481,-0.9077651,-0.09686268,-0.16051653,1.2768033,-1.5981585,-0.5230878,0.6826608,-1.8399216,1.2512374
ACCACAATCAGTGTTG.1,0.27348652,0.8382002,-0.04428053,0.7032233,-0.30122098,1.0062189,-0.3827434,-1.5478783,0.16120215,-2.2638454,0.18031515,1.3773221
ACCACAATCGTGCGAC.1,1.0783169,-2.421703,-0.35827157,-0.59402174,0.78567463,0.39529082,-0.09116606,0.29665017,-0.5674419,1.4567771,-0.7572315,0.77712613
ACCATTTAGCTCGACC.1,0.10285434,-1.3128428,0.34802994,0.9640697,-1.0439969,-0.7086089,0.8780761,0.9713108,0.16193166,-1.7334416,-0.29748723,1.6701049
ACCATTTCAACCTATG.1,1.0554287,-0.39741415,0.8472592,-1.2227486,-1.7174971,0.70865697,0.20729606,1.429694,-0.36843058,0.8223336,0.10294063,-1.4675189
ACCATTTTCGGCATAT.1,1.1702065,1.0773537,-1.1388552,0.53758883,-0.5071124,1.374202,-1.1961386,-1.8486245,0.4623079,-0.4392474,-0.1667423,0.6750616
ACCCAAAAGTTCCAGT.1,-0.009552893,0.459579,1.9531457,-0.913154,-1.7071652,-1.1998364,0.7034278,-0.23948544,0.09241553,0.07048638,1.3718538,-0.581714
ACCCAAAAGTTTGCTG.1,1.1646627,-0.017591536,-1.398643,0.79166543,0.049006596,1.6965623,-0.016664475,-2.1950977,-0.04755342,-0.16523744,-0.33158353,0.4704741
ACCCAAATCCGATGTA.1,-0.09821015,-0.3094491,-1.2610784,-0.050013807,1.6525751,2.180742,0.028656807,-1.4276167,-0.25362164,0.4385169,-0.21134378,-0.68915725
ACCCTCAAGGAAGTAG.1,0.74521023,0.8385237,-1.3117309,-0.024341516,1.1412323,0.30790728,0.57373184,-1.7940387,-1.3692008,0.050637126,-0.53905183,1.3811214
ACCCTCACAGAACTTC.1,0.7999742,0.35276335,-0.90299064,-0.1599336,-1.5543772,-0.5695972,0.6404566,1.5887321,-0.016151734,1.6898612,-0.69160986,-1.1771271
ACCCTCAGTTGCATTG.1,0.621096,-0.6723458,-0.1311764,0.66965157,-0.0071006063,2.1326997,-0.67262113,-1.3623857,-0.6233502,-1.4956319,0.65546674,0.88569766
ACCCTTGAGAAGCGAA.1,0.3401508,1.5736291,-0.67308646,0.24062727,-0.53049076,0.66187066,-2.2707312,-1.1196634,1.2024602,0.0006770988,0.00735517,0.5672015
ACCCTTGAGTAGCCAG.1,1.2437551,1.4309998,-0.9338382,0.35637727,-0.7993847,0.90734833,0.08552789,-2.1095138,-0.04418298,-0.3650137,-0.70011145,0.9280364
ACCCTTGCAGGAGGTT.1,-0.28787652,0.9442169,-0.02604537,-1.2585772,-0.3253901,-0.08156043,0.0772808,1.8144263,-0.48689783,1.83195,-1.1837422,-1.0177842
ACCCTTGCAGGCTTGC.1,0.9243599,0.0011106008,0.4676342,-1.3005263,-0.29484943,1.2604907,-0.22075167,1.2842724,-0.47062966,-0.790815,1.09378,-1.9540759
ACCCTTGCATGGACAG.1,1.2212471,0.42812163,-1.4359483,-0.51549727,1.0200114,0.9251983,0.6969731,-1.4645267,-1.2978768,0.5269117,-0.91918814,0.8145739
ACCCTTGGTGTGTTTG.1,-1.0571799,0.9241525,-0.55332273,-0.48203063,-0.43408048,-0.1761844,0.7934596,1.9866942,0.02406951,1.2046573,-1.7295448,-0.5006901
ACCCTTGTCCAAACCA.1,-0.13831961,-0.62241566,0.37058282,1.1862696,-0.10300382,1.243648,-2.233968,-1.3769478,0.64307255,-0.39921892,0.64720976,0.78309107
ACCGTTCTCGGCTTCT.1,0.02815832,-0.01806108,1.7878754,-2.107174,-0.7853032,0.2742552,0.28191513,-0.2743187,0.52938205,0.46605635,-1.3164229,1.1336372
ACCTACCAGACATACA.1,-0.7755426,-0.5994437,0.563335,0.34907115,0.9620041,-0.40132263,-1.1264685,0.88279676,-1.3194783,-1.2773035,0.96346503,1.7788869
ACCTACCCAACGGCCT.1,0.28689933,2.1553397,-1.741498,-0.51930636,-0.040756576,0.12774983,-0.29277074,-0.71351075,0.1741129,-0.036797583,-0.9537083,1.5542465
ACCTACCGTTCGGTTA.1,1.432984,1.4053385,-1.6171579,-0.61268467,-0.72074413,0.43825603,-0.53673023,-1.3146935,0.7018354,0.5990862,-0.71728677,0.94179726
ACCTACCTCATCACAG.1,0.8679976,1.8074743,-1.146322,0.49551722,0.06962802,0.839618,-1.5331016,-1.4274879,-0.033010017,0.1517302,-0.85030717,0.75826335
ACCTACCTCGGTATGT.1,1.2276367,-0.24849825,0.1529694,1.1606518,-0.9174128,1.5946769,-1.0982673,-1.1413,-0.30157474,-1.5597525,0.5205024,0.61036843
ACCTGAAAGGTCTGGA.1,0.24971168,0.8541837,-0.22730829,0.36126134,-1.0767828,-1.5287102,1.0728365,0.4031212,-0.20330293,1.3979571,0.6468723,-1.9498397
ACCTGAACAATACGCT.1,0.8276836,-0.856375,1.2768961,-1.8402021,-1.0278038,1.1201591,0.30436176,0.2647407,0.41050354,1.1681523,-1.1400145,-0.50810164
ACCTGAACAGCTACTA.1,0.27183226,-0.63790107,0.2399598,1.313944,-1.0456612,-0.57332087,-1.3856604,-0.9729578,0.7307468,-0.7493679,0.95292085,1.8554657
ACCTGAAGTTCTTGTT.1,0.7520434,-0.051948037,-0.63454294,-0.6405553,-0.41032818,-0.95364285,0.94543654,2.1058683,-0.8347594,-0.9338752,1.4299974,-0.7736936
ACCTGAAGTTGACGGA.1,-0.04705947,1.6317161,-1.0872161,-0.7725321,-1.2943844,-0.43785715,1.2340862,1.3371544,-0.11520007,0.8934793,-0.09401692,-1.2481697
ACCTGAATCCACATAG.1,1.483434,-1.8664535,-0.08279261,-0.79160386,0.3735558,1.6968166,-0.14112692,0.072949104,-1.3754305,-0.41297275,0.64707863,0.39654616
ACCTGTCGTCAAGCGA.1,0.34256616,-2.052537,0.45594254,0.23852298,0.6427576,1.6716812,0.7051814,0.43664277,-1.0631049,-1.0670139,0.6168244,-0.92746323
ACCTGTCGTCCTACGG.1,-0.6285858,1.3939102,1.828689,-1.7449841,0.5202386,0.33955824,0.80283016,0.281695,-0.8536537,-0.3009047,-0.7982351,-0.8405577
ACCTGTCTCATACAGC.1,0.16021298,-0.99148214,0.89220417,0.7644451,-0.35236135,0.44157314,-2.182871,-1.2988384,0.75693643,-0.21330535,0.7166694,1.306817
ACGATCAAGGGCAATC.1,0.4851909,-1.071738,0.67794025,0.6802268,-0.340027,0.34428465,-1.7926493,-0.52101654,0.23484074,-1.3863257,0.90799475,1.7812784
ACGATCAGTAATCAGA.1,-0.009978202,-1.5320038,0.16778095,1.0502919,1.1984683,1.673163,-0.019791383,-0.99630976,-1.1589222,0.10723993,0.7147567,-1.1946955
ACGATCAGTATTAAGG.1,0.27663058,1.0975773,-1.317574,-0.23934074,-0.75950336,-0.6084142,1.4355271,0.9191484,0.11382602,1.4774103,-1.1323348,-1.2629527
ACGATCATCAAGAAAC.1,-0.07325114,1.2437546,0.22051431,-1.0019755,-1.3461064,-1.0533314,1.3259825,1.350949,0.69539344,0.069425926,0.11424535,-1.5456005
ACGATCATCTGGACCG.1,-0.12466872,0.9618936,0.21308978,-1.6034856,1.2297561,0.7043954,1.482225,0.5138307,-1.7466419,-0.5110207,-0.42785233,-0.6915213
ACGATGTAGATCGCCC.1,-0.51614696,-2.0425768,0.70628065,0.70894116,0.35731837,0.9226165,-0.4669192,0.23148791,-0.23827942,-1.7518692,1.0176154,1.0715317
ACGATGTAGCTGGAGT.1,0.32472417,0.8161235,-1.1625378,0.5286777,-1.003684,-1.3224139,0.89165765,0.78609806,0.24850495,1.7557193,-0.4075587,-1.455311
ACGATGTAGTCCCTAA.1,-0.20747037,2.0815258,0.19040684,0.18058135,-0.26192296,-0.63423705,-0.99705964,0.87671006,-0.018337278,1.0323416,-0.188215,-2.054323
ACGATGTAGTCGAAAT.1,1.103333,-2.0072827,-0.18365979,0.4627191,0.23706564,1.4817902,0.89356786,0.46466666,-1.6418779,-0.23501363,0.11413362,-0.6894418
ACGATGTGTGGCGCTT.1,0.2747611,0.76445735,-0.022887575,0.26457068,-0.7818492,-1.2562762,0.8000227,1.1206613,0.10484237,1.3681726,-0.36278883,-2.2736862
ACGCACGAGTTGCTCA.1,0.05935396,-2.3785825,-0.83345956,0.8612916,1.3979508,0.82438517,0.43092364,0.3321475,-0.7061173,-0.73680234,-0.19586915,0.94477826
ACGCACGCACAATTCG.1,-0.76369756,0.72561514,2.2521837,-1.5797988,-1.0567462,-0.46290517,1.1252269,0.2834631,0.4165547,-0.061377607,-0.23740478,-0.64111316
ACGCACGGTGCCGTTG.1,-0.81246775,0.2636002,2.0121868,-1.4133812,-0.82647693,-0.7293296,1.5394411,0.64124066,-0.031526834,0.5658067,-0.30812657,-0.90096676
ACGCACGTCTATGTGG.1,0.46360382,0.6721966,0.5745413,-0.38349393,-1.2348231,-0.78293526,0.57774156,0.61341107,-0.7079262,0.55050987,1.7187245,-2.0615504
ACGGAAGCAATTCTTC.1,0.11135626,0.3984116,1.8906832,-0.58094597,-1.3139585,-0.7025184,0.55967546,-0.033919387,0.5720827,1.1742605,-0.16491339,-1.9102141
ACGGAAGCAGCGAGTA.1,0.56766117,0.9593359,-0.025737425,-1.0298457,-1.5177056,-0.5445387,1.3203794,1.4144752,0.026896112,-0.4242011,0.82926905,-1.5759883
ACGGAAGGTACGTACT.1,-0.2536288,0.98660636,1.1485212,-1.4341803,0.87294054,0.9982115,0.14635067,0.9749448,-1.0569758,-0.11511675,-0.37413365,-1.8935398
ACGGAAGGTGCAACGA.1,0.8808462,0.06917077,-1.277716,-0.20956211,0.6955734,1.2634119,0.2854692,-2.2129042,-0.5387043,0.54950917,-0.693226,1.1881318
ACGGAAGGTGGATCAG.1,0.35878757,1.2531283,0.2988354,-1.9684036,0.029149387,0.27792832,0.49686384,1.0498238,0.09138695,0.66303426,-0.49765876,-2.0528755
ACGGAAGTCATAGGCT.1,-0.2780794,0.87046564,1.9412581,-0.6641551,-0.4858984,0.4186376,1.5370203,-1.3031423,-0.47076765,-0.4509869,-1.4049698,0.29061806
ACGGGTCCAATTGGTC.1,1.2978135,1.3024349,-0.72679204,-0.16561407,-0.34090742,-0.06646304,0.9362223,-2.0057945,-0.577523,0.6916992,-1.2146057,0.8695298
ACGGGTCCAGCGCTTG.1,0.26388305,0.82117337,1.4933424,-1.2829777,-0.44863185,0.41686738,-0.1570074,1.5714703,-0.1198508,-0.57355535,0.055938013,-2.0406516
ACGGGTCGTGGAACCA.1,0.22513823,-0.5799907,0.48008728,1.2544683,-0.37370068,0.51124686,-1.4089162,-1.1900678,1.11036,-1.2654463,-0.47869956,1.7155203
ACGGGTCTCATTTCCA.1,0.8976878,0.36344492,-0.07621938,-1.5257441,-0.37947258,0.35211372,-0.48007515,1.6433579,-0.3491061,-2.0253477,0.9602387,0.619122
ACGGGTCTCGTACCTC.1,-0.026850346,-0.1992274,-0.20885506,-0.23973496,0.92718613,0.011700954,-0.5775518,-0.73510325,-0.36180037,-0.73970616,-0.8138843,2.9638267
ACGGTCGAGGGTTAGC.1,-1.0072839,-0.8110015,0.5675703,0.30575112,0.113736436,0.44761422,-1.3491327,0.80971164,0.16633992,-1.8947587,1.113515,1.5379384
ACGGTCGTCCACATAG.1,-0.20520252,-0.3760657,-1.1220725,0.27696055,1.0172492,0.06350679,-0.7348839,-0.72741705,-0.25014788,0.18002528,-0.8657171,2.7437646
ACGGTCGTCCTAGAGT.1,0.7915188,1.0478247,-0.42344952,-1.168996,-0.84462976,-0.51567674,0.82975966,1.8916789,-0.47635165,-0.47738066,0.8591419,-1.5134398
ACGGTTAAGAGGATGA.1,1.1237646,-0.026394363,-1.188144,0.69190204,-0.24396451,1.8979782,0.50818896,-1.3465722,-0.66168076,-1.4700192,-0.0019324438,0.71687365
ACGGTTACAAAGGGCT.1,-0.06594716,2.0695546,0.23233749,-0.95696664,-0.4613956,-0.20495446,0.31129122,-1.4275746,0.17464794,-0.16802476,-1.1955773,1.6926092
ACGGTTAGTGCGTTTA.1,0.53712225,-1.1107535,-0.023547202,-0.31582582,1.5821608,1.3993548,0.54377514,0.0370758,-1.9991374,-0.6256929,0.7721414,-0.79667354
ACGGTTAGTGTCATGT.1,-0.087630466,0.547708,2.093448,-1.2973157,-0.5236773,0.54757416,0.6699603,0.43369424,0.15003556,-1.166494,0.3405054,-1.7078081
ACGGTTATCCTAGCGG.1,-0.2937447,0.43945646,1.3832839,-2.0029516,-0.03143638,1.4973611,-0.1830033,1.2952895,-0.24237771,-0.6657355,-0.039666377,-1.1564754
ACGTAACAGGATTTCC.1,0.92175764,0.5057728,-0.6324843,0.7329851,-0.47469458,1.2733997,-1.3267524,-1.7868333,0.7713968,-0.96057725,-0.27462766,1.2506576
ACGTACAAGATGCTGG.1,0.611364,0.19083138,0.37878153,-0.24730523,-1.2709713,-0.5772757,1.4488693,0.5957808,-0.10875205,-0.5827364,1.588302,-2.0268886
ACGTACACAACTTCTT.1,0.6403568,1.248273,0.45435807,-0.90011066,-0.8598106,0.6550333,-2.1086717,0.40639907,-0.026762806,-1.2825423,0.79488134,0.9785963
ACGTACACAGAGGACT.1,1.4229577,0.3279406,-0.8412936,0.05406761,0.08576662,0.95857316,0.0074970736,-2.131581,-0.44453087,-0.57580113,-0.552551,1.6889548
ACGTACAGTAATGCTC.1,-0.4860702,-1.2108381,0.94600725,0.8650693,0.25624183,1.2558775,-1.5356952,-0.68551373,-0.20821029,-1.3482305,1.1385273,1.0128347
ACGTACAGTCCGGTCA.1,0.6963895,0.23392528,-0.46316242,0.8975487,-0.5613504,1.0857924,-1.180423,-1.6652056,0.51288193,-1.3782797,0.21902126,1.602862
ACGTAGTTCTTCACAT.1,0.09323296,-0.5933948,-0.21764857,0.9069698,0.8530591,1.8229809,0.84221023,-0.43148002,-1.5519097,-0.43836066,0.4516379,-1.7372974
ACGTCCTCAGTAACAA.1,-0.1415264,-0.13900149,-0.5699199,1.4064916,0.6343372,1.7854277,-0.892002,-1.9177976,-0.42345008,-0.803534,0.85147005,0.20950495
ACGTCCTTCTTGATTC.1,0.95555574,0.3540982,0.17982993,-0.91390043,-0.1607437,0.84432083,0.6098904,1.7284285,-1.4422088,-1.1772407,0.5238262,-1.5018562
ACGTTCCAGACATCAA.1,-0.5076193,0.6393638,1.1801428,-1.46952,-0.012685568,1.0832518,0.3203593,1.2296062,-0.73902255,-1.3152112,0.9432115,-1.3518769
ACGTTCCAGACTAAGT.1,1.0542823,-1.7701838,-0.04134413,0.36276427,-0.71262544,-0.15445542,0.85925716,0.87839186,-0.09037021,-1.8138255,-0.0803533,1.5084621
ACGTTCCGTCCGGTCA.1,0.0918732,1.3534613,-0.16961128,-0.60296464,-0.68746716,-0.7088751,0.5946067,1.4799498,0.3339583,0.9245548,-0.33587608,-2.2736096
ACGTTCCGTTGCACGC.1,0.45623854,0.053603068,0.34844205,-1.1170936,0.6535683,0.62443024,-1.9889748,0.94602126,-0.63491595,-1.222949,1.6765571,0.20507322
ACTACGAGTTCGGTAT.1,1.2105951,-0.52341413,1.5494618,-1.0351623,-0.41316894,0.4990248,-0.6603291,0.9303992,-0.03822899,0.2443322,0.4317424,-2.1952522
ACTATCTAGGTTGGAC.1,0.30918857,-0.21162358,-0.4613945,-1.0136137,1.0305979,1.2055362,-0.13932255,-0.3662363,-1.9006203,-1.0200019,1.255755,1.3117353
ACTATCTCAGACCAGA.1,1.0765102,0.9506176,-0.3960341,-0.040135436,0.009605593,0.14659041,1.3155382,-2.1958501,-0.8112753,0.51838565,-1.3149395,0.7409867
ACTATCTGTCACAGTT.1,-0.6501862,-2.1461146,0.12726757,0.6327233,1.6606803,1.3138721,0.17958225,-1.1017138,-0.6018044,-0.083821535,0.67494303,-0.0054280665
ACTATCTTCCAACCGG.1,0.94335294,-0.51701665,-0.8633813,1.4117794,-0.28551605,1.7303114,0.613202,-0.90596837,-0.9156851,-1.6952966,0.27523774,0.2089809
ACTATGGCATGTGGTT.1,1.3526982,0.46138555,-1.0845833,-0.21031581,-0.24171785,1.0372031,-0.06209182,-2.1194313,-0.20865573,-0.04120294,-0.54571795,1.6624298
ACTATGGTCACATACG.1,0.69621885,0.9166815,-1.1291275,-0.39588392,0.23237292,-0.10148733,0.5561262,-1.1526173,-0.8425726,0.75313544,-1.5206984,1.9878522
ACTATGGTCTCTCGCA.1,0.10669966,-0.26483187,0.35388443,-0.12168226,1.1070137,1.5743268,0.5996966,0.58949804,-1.7246981,-0.37683353,0.2081233,-2.0511968
ACTATTCAGCCGTTGC.1,-0.8370643,-1.6700315,0.17544354,1.0768056,0.8359927,0.70979005,-0.5834311,-0.95283514,0.07191555,-1.1407852,0.49199456,1.8222057
ACTATTCAGCGTCTGC.1,0.78866464,-0.7746812,-1.0036914,0.8238574,0.99093837,2.0742776,0.3869388,-1.4513958,-1.0709046,0.118711725,-0.45475328,-0.4279627
ACTATTCTCGTCAACA.1,-0.13990133,1.2035486,0.24854356,-1.2658918,-0.5939071,0.22737607,0.8677162,1.9207889,-0.37700438,-1.5662951,0.5398986,-1.0648721
ACTATTCTCTCCAATT.1,-0.5472259,-1.2497272,1.0566612,0.31164697,-1.4883189,-0.38769174,0.90186316,0.011083541,0.90222037,1.6274289,0.3355214,-1.4734617
ACTCCCAAGGAAGAAC.1,-0.004163253,0.43883303,1.584176,-0.71292067,-2.1802926,-0.45650953,0.8710066,0.35462612,0.077542596,0.60661024,0.80633163,-1.3852402
ACTCCCAAGTTGTAGA.1,1.1975158,0.6599755,-1.0567,0.2002599,-0.84651613,1.1885847,-1.0010335,-1.6498845,0.35347697,-0.5327567,-0.15247527,1.6395532
ACTCCCATCATTCACT.1,0.91909796,-0.65860945,-0.9391092,0.12397425,0.72701406,1.7260809,0.87639856,-0.29134446,-2.071431,-0.23834291,0.6549616,-0.82869047
ACTCCCATCTGGTTGA.1,0.6521902,0.057561636,-0.72702223,1.2432914,-0.45645675,1.7938612,0.2576228,-1.6656529,-0.32759896,-1.5483378,-0.122263916,0.8428053
ACTCTCGAGACTGGGT.1,0.64997286,-0.529596,0.43374658,0.023811003,0.5626904,-0.117484294,-1.7887486,-0.11062588,-1.0543228,-1.2204248,1.5567476,1.5942339
ACTGATGAGTTCTCTT.1,0.6380087,2.0983753,-0.9113555,-0.38104337,-0.09665947,0.22307937,-2.055245,-0.1762179,0.074167125,-0.88889205,0.65067196,0.8251109
ACTGATGCAATACGAA.1,0.18210134,0.119362295,0.21244764,-0.5948857,0.8089954,1.6227064,0.94323754,0.39107218,-1.6666348,-1.084479,0.7232928,-1.6572164
ACTGATGGTGGTTCTA.1,0.37324336,-1.3613061,0.58928305,1.2242264,-0.90357137,-0.30712074,-0.18685156,-0.35845068,0.7017813,-1.8173506,0.24884006,1.7972769
ACTGATGTCGTCGCTT.1,0.18531004,-0.48608288,0.5162999,0.992431,-2.1089528,0.5647368,-0.36639595,-1.1853178,-0.17501299,1.9870437,0.34636098,-0.27042
ACTGATGTCTCCTGAC.1,0.88025486,2.4986749,-0.7763958,-0.26297596,-1.130515,0.36376762,0.27076983,-0.6561758,-0.46537057,-1.2692662,-0.18366754,0.73089993
ACTGCAAAGGGAGGAC.1,0.69555414,-0.8443842,0.41352966,0.29835823,-1.7272779,-0.54479885,0.24727273,0.6494761,0.1034778,1.5212181,1.0299466,-1.8423724
ACTGCAACACACGGTC.1,0.3657631,0.24930954,0.9919313,-2.2613583,-0.5428589,0.54660636,0.7507235,-0.39723602,0.40147507,0.5929454,-1.6969191,0.99961793
ACTGCAACACGTACTA.1,1.2689465,-0.549618,-0.4869418,0.09625089,0.21084677,0.45190343,-1.192748,1.2242643,-0.18114275,1.7145888,-1.74244,-0.81391025
ACTGCAACATACCAGT.1,0.09704327,0.09227884,0.11135475,0.5191025,-1.3443595,-1.0487767,0.5754336,0.17852278,0.1984807,2.3630345,-0.06819909,-1.6739156
ACTGCAACATCTATCT.1,0.3345513,1.2460364,-0.029211834,-1.3787732,-1.1764634,-0.085779905,0.6589696,1.5778072,-0.21617112,-0.4256564,1.119001,-1.6243099
ACTGCAATCCGCACTT.1,-0.2779386,1.778793,-0.35369322,-0.13763592,-0.09801526,0.14392292,-1.7915782,-0.86294574,1.0459292,-0.594921,-0.54910344,1.6971861
ACTGCAATCGACACTA.1,-0.33028248,0.34582388,-0.080785654,-1.0036242,1.2876891,0.37578076,-2.6567962,0.40529352,-0.09283003,1.0559942,-0.083811946,0.777549
ACTGTCCAGATCACTC.1,0.32629567,1.9004772,-0.59549034,-0.8692396,-0.13661312,-0.4996516,0.1687031,1.5415211,-1.6649096,0.24003334,0.6844977,-1.0956239
ACTGTCCAGGTGATAT.1,0.7426346,-0.5670956,-0.36409956,0.038216114,-0.02705624,1.3913431,0.97441804,0.03395922,-1.8569344,-1.4810053,1.5174373,-0.40181723
ACTGTCCGTGAATATG.1,0.19660081,-0.5452115,1.0881333,1.1233983,-0.4524469,1.2176422,-1.8731337,-1.0581135,-0.53730327,-0.9676473,1.0503701,0.7577114
ACTGTGACATCTGCGG.1,-0.6382405,-1.2486967,-0.08957468,0.697728,1.1380215,0.14618719,0.202217,-0.1372316,-1.4167558,-1.4547225,1.1597404,1.641328
ACTGTGACATGGAGAC.1,0.101558805,-1.9518818,-0.3799208,0.023646617,1.5839843,1.2352109,1.1283987,0.22933361,-1.3128686,-0.19900692,0.40559426,-0.86404896
ACTGTGATCTTTCCAA.1,0.54508865,-0.5224913,-0.11716984,0.26608443,-0.0067533287,0.05517408,1.11416,1.101736,-1.2058898,-0.8845041,1.6426212,-1.9880558
ACTTAGGCAACGATCT.1,0.62783223,1.9373592,-0.5070887,-0.10862982,-1.0622375,0.57125413,-0.55443954,-1.359919,1.0742435,-1.0657879,-0.6656951,1.1131085
ACTTAGGGTTTCCATT.1,0.580653,-0.25447178,0.835647,-0.10633491,-0.1441385,1.153078,0.1740891,0.7450701,-0.810706,-1.1205413,1.2746748,-2.3270195
ACTTAGGTCGACCACG.1,0.44825053,-0.95114565,-0.55424803,0.7376768,0.9248316,1.7947673,1.2083925,-1.1403366,-1.2705723,0.08794534,-0.027342085,-1.2582194
ACTTATCAGAACCGCA.1,0.031420514,1.5748513,-0.74558794,-0.3972936,-0.7839119,-1.5050141,0.76173216,1.5454019,0.286735,0.63383657,0.16205408,-1.5642241
ACTTATCAGTGAGGCT.1,0.25797,1.2831978,-0.34787902,-1.6144783,-1.2711275,-0.42431033,1.150216,1.6068873,-0.15194467,0.05484021,0.6461066,-1.1894782
ACTTATCGTTAATCGC.1,-0.15000544,0.08524089,1.7497233,-1.2538701,-0.26812574,1.0446323,-0.13893172,1.0882258,-0.48595542,-0.6915561,0.88432574,-1.8637034
ACTTATCTCTCATGCC.1,0.7392018,0.74118507,-0.42827952,-1.7272885,-1.1784172,-0.12356676,0.7931497,2.121497,-0.018526776,-0.8698368,0.4473197,-0.49643806
ACTTCCGAGTGACACG.1,0.22410484,0.1030797,-0.12522821,1.0756112,-1.0026207,-1.8439368,0.57721967,-0.115118586,0.029666753,2.1195014,0.17829038,-1.2205696
ACTTCGCCAAGTCATC.1,-0.06549708,-1.2405176,0.74403733,0.1946504,0.20094766,1.4976269,0.6098841,0.6659293,-1.1385564,0.022326171,0.73082334,-2.2216542
ACTTCGCGTGCGGATA.1,0.44936854,0.73977125,0.028566163,-0.9496577,-0.22407517,-0.22761229,1.2581514,-1.4448266,-0.12251861,0.7396737,-1.8530245,1.6061839
ACTTCGCTCATCTGTT.1,1.1525046,2.0766113,-1.5265548,-0.3877795,-0.71907145,0.94775575,-0.9409969,-0.941192,0.24341184,-0.2837875,-0.30055815,0.6796569
ACTTCGCTCGGAAGGT.1,0.1679784,-0.7533286,-0.45118558,-0.20946595,0.53898615,1.08541,-0.45293978,-1.192378,0.068681695,-0.5405247,-0.8987734,2.6375399
ACTTTCAGTAACACGG.1,-0.30692947,-0.58714145,0.30154034,0.1430698,-2.0400417,-0.9391744,0.75882876,0.85513467,0.43729192,1.9039397,0.49303022,-1.0195483
ACTTTCAGTGTGATGG.1,-0.40522188,0.6316727,1.8614115,-1.6783011,-0.00033782457,0.50937283,0.8503752,1.0124536,-1.0529195,-0.97272986,0.2573821,-1.0131577
ACTTTCAGTTGAAGTA.1,1.3640724,-1.5252997,-0.736801,-1.7253132,0.03127821,0.044791367,-0.0066918335,0.8485158,-0.24775994,1.8717805,0.07165873,0.009768478
ACTTTGTAGGTTGGTG.1,-0.49936625,0.91832477,0.7618564,-2.0501719,-0.082040526,0.08959168,1.6870061,0.80156696,0.45280895,-0.06415758,-0.57163703,-1.4437819
ACTTTGTAGTTCCGGC.1,-0.0043033087,0.18520434,0.9782858,0.31502554,-0.036831196,-0.30261204,0.71095306,0.8564452,-0.8975311,-0.3427098,1.2165848,-2.6785114
ACTTTGTCATGCGTGC.1,-0.26950827,-1.9896028,0.48081586,0.6800525,0.055970665,0.32089183,0.8288175,-0.046480402,-0.23953879,-1.6453056,-0.10104547,1.9249332
ACTTTGTGTAGTCTTG.1,0.49677575,-0.16201268,0.95509666,-0.10984323,-2.0567842,-1.2090062,0.35573974,-0.33663282,0.8645972,1.2622257,1.0942463,-1.1544021
ACTTTGTGTATCACGT.1,0.4733286,0.60420644,0.59216017,0.46244875,-0.397332,1.099402,1.6704563,-1.8864334,-1.2192829,0.32715285,-1.0169489,-0.7091581
ACTTTGTGTGGCTTGC.1,-0.67795926,0.60227144,1.1574624,-1.2155206,-0.34228086,0.714375,0.37171522,1.442401,0.19490573,-0.4213833,0.43451992,-2.2605066
ACTTTGTGTTGCGAAG.1,-0.49213332,-1.8200449,0.43233773,-0.51739544,1.5295675,0.93997955,-0.6171434,-0.35307434,-0.56511474,0.039658774,-0.49828857,1.921651
ACTTTGTGTTTGTGGT.1,1.1392258,-1.8869365,-0.21673074,-1.4609861,-0.0033531275,0.8052272,0.014040557,0.49514,-0.5238769,1.6404666,-0.7430112,0.74079454
ACTTTGTTCACAACCA.1,0.6775626,1.5699561,-1.3096838,0.67548704,-0.01966004,0.9475477,-1.427702,-1.3161305,-0.28765553,-0.50504035,-0.3398031,1.3351215
ACTTTGTTCTATCGCC.1,0.2892927,0.19983114,-0.8204788,0.73778766,-0.93333083,-0.83914435,0.50972325,1.1259681,0.27155817,1.5617182,0.13851927,-2.2414446
AGAAATGCATCGAGCC.1,0.30740684,0.2925193,1.2918909,-0.36949682,-1.8111705,-1.0872988,0.2086865,-0.10663685,-0.6379894,1.1235383,1.7202977,-0.931747
AGAAATGGTGGCATCC.1,-0.5171548,1.4850571,1.8951212,-1.695579,-0.79610705,-0.19231074,0.69521546,0.38139138,0.028415635,-1.192789,0.36266652,-0.45392674
AGAACAAAGAATTCAG.1,-0.60718805,1.7579913,0.8191721,-1.7571777,-0.0019523634,0.6733711,0.04036149,1.337093,-0.31538737,-1.2470955,0.21611178,-0.9152996
AGAACAAAGCAAGGAA.1,0.11365293,0.3331543,1.3816667,-1.4173535,-0.62474173,0.20496602,0.95407313,-1.2984326,0.23962648,0.4071833,-1.6738758,1.3800805
AGAACAACAGAGAATT.1,-0.15746108,1.9824907,-1.1172369,-0.7497614,-0.5073505,-0.4345592,0.70370984,1.6056936,-0.23305346,0.79640573,-0.59632516,-1.2925521
AGAACAAGTCTCTCTG.1,-0.026222892,-0.2479918,0.7896161,0.27550834,-2.1461244,0.1537326,0.11263556,-0.017558929,-0.30818713,1.8012782,1.0679244,-1.4546102
AGAACCTAGGACCCAA.1,0.10845613,0.64010864,1.7018154,-2.5356946,-1.0734129,0.52308154,0.09221964,0.84094924,0.014094626,-0.026924452,0.044197787,-0.32889107
AGAACCTCACTTGGCG.1,0.88860023,1.8729892,-0.4186552,-0.6407661,-0.85831153,0.27059272,-1.1794933,-1.0829234,0.79622066,-0.44261175,-0.7423879,1.5367461
AGAACCTGTGCATTAC.1,-0.10191037,-0.38338032,0.4350264,-0.08303544,-0.051449068,0.1974442,0.363891,1.1656985,0.059995215,0.5736513,0.8373363,-3.0132678
AGAAGCGAGAGCCTGA.1,-0.3058852,1.5149509,-1.0080154,-0.9568805,-1.1959523,-0.38562548,1.5429682,1.6284853,0.42262685,-0.19127125,-0.1550886,-0.91031224
AGAAGCGCACACCGCA.1,-0.5572887,0.9269562,1.8381422,-0.9381399,0.12152396,1.250742,0.36999732,0.48537716,-0.29054406,-1.1986636,-0.26843983,-1.7396625
AGAAGCGGTCTCTCAC.1,-0.97711235,0.6550983,1.8935633,-0.8184701,0.5898409,0.6969045,-0.4216506,-0.10302895,-0.92549866,1.4394642,-1.4337089,-0.5954017
AGAAGCGTCCATCGTC.1,1.1718441,1.2596585,-0.7509072,0.46300343,0.050325856,0.51566696,0.9067582,-2.2460017,-1.0508727,0.23020707,-0.91446006,0.36477742
AGAAGTACAAGTACCT.1,-0.16339538,-1.0913526,-0.31880602,0.4346377,-0.41186178,-0.7277569,0.5881592,1.8880732,-0.09106484,-1.7620692,-0.008426926,1.6638632
AGAAGTACACAAGCAG.1,1.526918,-1.5388641,-0.87189966,0.095749155,0.6952494,0.12214417,-0.2550294,1.1368871,-1.5781425,-0.52590084,-0.17705467,1.3699434
AGAAGTACACAATTCG.1,-1.217307,1.8171127,0.072364695,0.13973632,0.06309479,0.39641032,-1.1819799,-0.24211305,1.1161604,-1.4423751,-0.79344964,1.2723454
AGAAGTACATAACAGA.1,0.599655,-1.6000623,0.07492926,0.4585869,-0.1529659,0.48336047,1.5114816,0.09847016,-0.86386174,-1.9142692,-0.07265034,1.3773261
AGAAGTATCAGGTAAA.1,1.1515796,0.6343798,-1.4468788,-0.56631637,0.55944866,0.14589916,0.04530691,-1.3979629,-0.32623738,0.82947147,-1.347845,1.7191545
AGACAAAAGGATTACA.1,0.4355671,-2.2451665,0.54604167,-0.448451,1.2702422,0.5119428,-0.040337354,1.4412763,-1.0972224,-0.6217375,0.71322936,-0.46538422
AGACAAACAAAGACGC.1,-0.07680904,-0.34852123,0.9972188,-0.814225,-0.12567683,-0.28533858,1.1510042,-0.99061334,0.141082,-1.2653289,-0.7539653,2.3711734
AGACAAAGTACTTCCC.1,0.8453759,1.3291365,-0.8132564,-0.9457,0.16302188,0.49496832,-0.36425626,-1.7120441,-0.1641997,0.05932401,-0.85752326,1.9651532
AGACAAAGTTTAGTCG.1,0.47728497,-2.648293,0.37056214,0.0068575493,0.46699584,1.4666212,-0.5354673,-0.6625232,-0.093002796,1.1572227,-0.30214512,0.29588714
AGACAAATCTTGGCTC.1,0.1340428,-1.1289974,-0.6137601,1.0432708,0.28247216,2.0341897,0.30463666,-1.5455785,-0.3874836,-1.1126103,-0.0817333,1.0715508
AGACACTAGAATCGCG.1,0.5581306,1.4158715,0.38590202,-0.32998964,-0.4639276,0.06610125,1.2659776,-2.1419861,-0.52480847,-0.07361222,-1.2455153,1.0878565
AGACACTAGCTCTATG.1,-0.81904376,-1.0079329,-0.03310778,0.044640664,1.4331937,-0.39490336,-0.25559878,-0.38302267,-0.7302813,-0.259096,-0.27987114,2.6850233
AGACACTCAACCGATT.1,0.21676055,-1.4831915,0.22693756,0.9795202,-0.24940227,1.1472867,-0.22319469,-0.8607278,-0.25682425,-1.729391,0.40026024,1.8319663
AGACACTCAGCTGTAT.1,0.018156618,-1.7986034,-0.3173614,1.1963048,1.4429959,1.151488,0.23818031,-1.5143042,-1.0875211,0.35537827,-0.08331941,0.39860567
AGACACTCAGTAGATA.1,-0.43027458,-0.98296726,-0.064335816,1.1543683,0.9177588,1.5804045,-1.6077278,-0.8056358,-0.7562282,-0.5653967,1.4241167,0.13591808
AGACAGGCAAGCGAAC.1,-0.17808765,-1.5406795,1.02681,0.16668592,0.41543984,0.09295453,-0.50110644,1.1562072,-0.57194245,-2.0061347,1.4749541,0.46489877
AGACAGGGTCATCGGC.1,0.2376365,0.57206994,0.3423324,-0.7033368,-0.0904426,0.8432115,0.3953603,1.8380471,-0.8241342,-1.4090272,0.69603425,-1.8977513
AGACAGGTCGTTGCCT.1,0.3913056,-0.14910851,0.97443074,-0.51222765,-0.6488134,0.8491954,-0.07586122,1.2771928,-0.28020102,-0.8339792,1.3161708,-2.3081045
AGACCATAGAGCATCG.1,0.8319001,-0.5189421,-0.7942794,1.0165299,0.42388478,1.833804,0.9685516,-1.3035697,-1.0862218,-0.10287846,0.1399379,-1.4087166
AGACCATAGGTGCGAT.1,0.36945364,-0.94139856,0.6117631,-0.080461994,-1.43899,0.21652287,-0.16397528,0.0067772255,0.6657023,2.4947028,-1.2384015,-0.5016945
AGACCCGAGAATAACC.1,0.37896228,1.243439,-0.15056744,-1.5397447,-1.4874691,-0.6557271,1.1726962,1.5422652,0.3694125,-0.16263013,0.38798696,-1.0986238
AGACCCGAGATACCAA.1,-0.2478427,-2.2546432,0.8625938,0.59645975,0.37601957,1.2747502,-1.2244512,-0.057450976,-0.3040152,-0.84953487,0.9388454,0.8892694
AGACCCGGTAGAGTTA.1,-0.41200992,1.5914158,0.21776238,-1.4706016,-1.4236866,-0.2632339,0.5665059,1.748072,-0.25684097,0.3872146,0.4207391,-1.1053368
AGACCCGGTATGCGTT.1,0.56974196,-0.85936105,1.7683611,-0.50975597,-0.7684838,0.55925983,0.33101687,0.13361803,-0.49621052,0.19013228,1.2460012,-2.1643202
AGACTCAAGAATAGTC.1,0.537369,-1.3713752,-0.28269908,1.3924383,0.39515752,1.8153278,0.69295985,-1.1980742,-1.1799245,-0.787028,0.45815915,-0.4723106
AGACTCACAGGACGAT.1,0.2679831,-0.9007264,-0.22608095,-0.5409124,0.9007326,0.46115357,-2.260892,-0.19564731,0.33977386,1.863649,-0.5503332,0.84130013
AGACTCATCCAGTACA.1,0.35713178,-0.16763979,-0.8853034,0.83214897,0.56980085,2.2762725,0.18010776,-2.0182688,-0.6735803,-0.15459491,0.1800612,-0.49613595
AGACTCATCCGAGGCT.1,0.2929973,1.3479371,-0.5558137,-1.6534454,-0.97453773,-0.15099846,1.3035209,1.7643219,-0.43965444,-0.3921352,0.35173306,-0.8939255
AGACTCATCTATCGCC.1,0.9439412,1.3434182,-0.4277978,0.22513643,0.041218195,0.12873136,1.1714256,-1.9956849,-1.2519883,0.4046851,-1.2391709,0.6560857
AGACTCATCTTCACGC.1,-0.28057054,1.2649335,1.9734957,-0.53640383,-0.7590788,0.5215104,1.463515,-1.0541514,-0.59147364,-0.6990966,-1.0699444,-0.23273553
AGAGAATAGGGCAAGG.1,0.5485977,0.39590618,-0.73076946,0.013421137,-1.57317,-1.460839,0.85492796,0.85238516,0.19881356,1.6168293,0.64983076,-1.3659334
AGAGAATGTATTAAGG.1,1.2863644,1.0397114,-1.741917,-0.2171801,-0.027751941,-0.0048858384,-0.48713994,-1.3773066,0.01941803,0.95209414,-0.9423576,1.5009509
AGAGAGCAGCAGATAT.1,1.1966436,-0.77173907,-0.8879285,-0.26955727,0.33994368,0.5846079,1.6629996,-0.044298027,-1.8510201,-1.2277246,0.3611448,0.9069278
AGAGAGCAGGCGAACT.1,-0.49581012,0.054234765,0.5400675,0.6290804,0.32270095,0.25893927,-1.9919488,-1.2071604,0.6212252,-1.0131183,0.28886107,1.9929285
AGAGAGCCATACAGCT.1,0.029117996,0.7637763,-0.07534683,-1.2360787,0.12942436,0.20123915,0.88937634,1.3597376,-0.98076624,-0.42507893,1.3793051,-2.034706
AGAGAGCTCGTGGTAT.1,1.2155306,1.1564525,-1.7624873,0.08828035,0.14905629,0.7646147,-0.5400922,-1.4425964,-0.14605759,0.1606897,-1.0424681,1.3990772
AGAGCAGAGGTTATAG.1,0.74906415,0.25967363,-0.34508842,-0.22180127,0.35768834,0.85896367,0.8437863,1.1563739,-1.7495288,-1.1264131,0.95998704,-1.7427055
AGAGCAGGTGGCGTAA.1,0.6960136,-1.7756178,0.48352212,-0.43940777,1.1675874,0.121354364,-0.8296142,0.7509648,-1.25746,-0.9762252,1.6003869,0.45849577
AGAGCAGTCTCTGCCA.1,-0.102827616,0.9597232,-1.2777088,-0.8927056,-0.6593311,-0.95037115,1.6665277,1.3716791,0.28255588,1.1489179,-0.62069124,-0.9257682
AGAGCCCAGGGATCTG.1,0.53641754,0.48769835,-0.110016145,-1.6742088,-0.048812505,0.6596523,-0.74188846,-1.1981888,0.2582444,0.25789806,-0.7730553,2.3462594
AGAGCCCCACGAAAGC.1,0.37694347,-1.1171836,0.4578137,-0.25231317,0.95240724,2.0306017,0.20174854,0.16763736,-1.2730516,-0.8542608,0.8056159,-1.4959588
AGAGCCCCATGTGACT.1,-0.31780612,-0.16370079,0.07766018,0.88429487,-0.5550446,-1.0724247,0.29781768,-0.3833905,0.37817767,2.6948576,-0.53847986,-1.3019613
AGATAGACAGACCATT.1,0.45207918,-0.62455225,-0.7010781,0.50884676,0.5991195,2.1253955,0.82306486,-1.4053093,-1.2918792,-0.96176785,0.69589806,-0.2198171
AGATAGAGTATCCTTT.1,1.3651602,1.5370123,-0.9217173,-0.086977445,-0.64235705,0.038129546,0.59168226,-1.9877932,-0.40290025,0.5233985,-0.94621986,0.9325822
AGATAGAGTCTGTGTA.1,0.2504657,-2.3650773,0.1250724,1.3107643,-0.34733692,-0.5645631,0.3498136,-0.27779368,0.10115626,-0.99301964,1.018982,1.391536
AGATAGATCTTACGTT.1,-1.0143174,-0.062716104,2.0600295,-1.1002566,-0.35983923,0.018826837,0.5827004,0.23877674,0.63194287,1.2791151,-0.7099739,-1.5642884
AGATCCAAGACGGTCA.1,0.6503502,2.1404583,-1.081285,-0.25382048,-0.90409946,0.71483475,-1.1491196,-1.1138684,0.8944318,-0.29386327,-0.47563887,0.87162006
AGATCCAAGAGAGCGG.1,0.4443457,-1.4670286,-0.25411218,1.4383615,0.016261123,1.6870242,-0.08042318,-1.8446964,0.020282997,-0.7764883,0.0053846235,0.8110885
AGATCCAAGAGAGTTT.1,0.9403995,-0.11353497,-0.24224034,0.2875676,-0.48344323,-0.7652565,-0.2306514,0.8024921,-0.122719735,2.4629838,-0.9949611,-1.5406356
AGATCCAAGGTGCGAT.1,-0.4005137,0.65832,0.90903646,-2.226957,-0.05726917,1.0115135,0.11285501,1.6617537,-0.5898833,0.13530543,-0.008517415,-1.2056432
AGATCCACAAGGGTCA.1,0.14839785,1.2546425,-0.76207614,0.44153562,-0.08646457,0.42982253,-1.9420449,-1.070156,0.9656454,-1.0334425,0.06859248,1.5855476
AGATCCACATGGAAGC.1,0.23313417,-1.2324718,-0.06960619,0.9168298,0.8480571,2.2047718,-0.6215836,-0.9832975,-0.8721167,-1.1583468,0.73851967,-0.0038899032
AGATCCAGTAGTGATA.1,0.49393559,-0.5745075,0.5940045,-0.58680445,-0.22596268,0.71564764,0.38047004,1.2449124,-0.8826273,-0.23268466,1.4353268,-2.3617105
AGATCCAGTGCTATTG.1,-0.06440655,0.59448266,1.9663368,-0.19280137,-0.8972613,0.5217963,1.425463,-1.538307,-0.58914024,0.1415096,-1.3769206,0.009248552
AGATCCAGTTTAGACC.1,1.0281597,0.6586072,-1.3192692,0.7570971,0.14113897,1.834529,0.018051406,-2.1040452,-0.5345472,-0.12785013,-0.2726691,-0.07920276
AGATCCATCGGAATTC.1,1.0109892,-0.6179412,-0.34157592,-0.37275913,1.7076486,1.0735681,-1.0954747,-1.1853578,-1.3511261,-0.04542507,-0.13220948,1.3496634
AGATCCATCTACACAG.1,0.548846,2.0451868,-0.9818332,-0.6655025,-0.71472484,0.30924308,-1.2800652,-0.701037,1.0392835,0.03247369,-0.8703741,1.2385036
AGATCGTGTACGATTC.1,0.6350692,0.41789737,-0.6249119,-1.0541137,1.256852,0.35759157,0.30501732,-1.1198143,-1.3541952,0.22370172,-1.0255563,1.9824624
AGATGAAAGCAAATCA.1,0.97477657,1.285461,0.3200964,0.011455509,-0.606833,0.114089854,1.2261529,-2.029415,-1.2036529,0.3360735,-1.1191342,0.690929
AGATGAAAGGATGCGT.1,-0.887182,-1.1683304,-0.8554962,-0.03327181,1.7449911,1.0265483,0.61606026,1.0431255,-1.6310074,-0.68249935,0.6141402,0.21292211
AGATGAACATCCGAAT.1,0.27651688,-2.6602135,0.6193756,1.4573126,0.11140906,0.34953964,-0.936651,0.44742393,-0.09316487,-0.56218946,0.100414336,0.8902268
AGATGAAGTAAGATAC.1,0.31997535,-1.0536205,0.38436374,-1.4138982,1.1741583,1.0440743,-0.10892119,1.6495596,-1.1200308,-0.9086994,0.84061205,-0.8075734
AGATGAAGTTGGTGTT.1,0.43891275,-0.9660888,-0.18687005,1.255931,-0.1833702,1.433757,-0.53627837,-1.1596287,-0.1944288,-1.7633653,0.35608092,1.5053487
AGATGCTAGATCCGAG.1,0.89541537,-1.1943816,-0.1594172,1.3465942,-0.96189153,-0.99052626,0.3746569,0.33053067,-0.5325758,1.5822065,0.8276121,-1.5182234
AGATGCTGTACGATTC.1,0.26860765,0.5065585,1.7040591,-0.8814894,-0.99928206,0.14512815,0.5502041,0.6713368,-0.42072645,-0.7739041,1.2185923,-1.9890845
AGATGCTGTCTCAGAT.1,1.6443442,-0.79912555,-0.12646532,-1.0617988,-0.09765346,1.0964091,-1.0151685,1.672424,-0.6553114,-1.344973,0.3311401,0.35617873
AGATGCTGTGCATTTG.1,0.4340601,-1.0176625,-0.27083048,1.2790804,0.3054651,1.9369993,0.078213334,-1.0404555,-1.2862328,-1.2468156,0.9529469,-0.12476837
AGATGCTGTGTGATGG.1,-0.637694,0.8391827,0.78982705,-0.4503961,-0.21100187,-0.40964472,-1.9642919,0.8921812,0.6788827,-1.6014609,0.94098914,1.1334265
AGATGCTTCGAAGAAT.1,1.1153775,1.1284347,-1.7473161,-0.2179721,-0.40221384,0.028387222,0.3663122,-1.4858071,0.33664116,0.5188223,-1.1300066,1.4893404
AGCATCAAGAATCGAT.1,-0.18646646,0.7561271,0.30032748,-1.297068,-0.1172274,1.800826,0.064232424,1.4066354,0.074681215,-1.489634,0.14865166,-1.4610854
AGCATCAAGCGTGAAC.1,-0.96527535,-0.4887448,0.14849186,0.6795335,0.86734945,0.73352623,-1.6934309,-0.92705876,0.34956086,-0.7790697,-0.068301834,2.1434195
AGCATCAGTAGCTGCC.1,0.62625706,-0.5611674,-0.17909564,0.8515553,-0.601917,1.6169425,-0.009584572,-0.20530462,-0.57730377,-2.45837,0.6547157,0.84327227
AGCATCATCCTGTTAT.1,0.52199894,-1.5938256,0.6251441,-1.1593218,-1.363367,1.0783379,0.3290876,1.0914766,0.44288105,0.49512237,0.90215087,-1.369685
AGCATCATCGTCTAAG.1,0.7319889,1.0680504,-0.049622934,-0.47368622,-0.3072502,-0.34195936,1.2606206,-1.6989214,-0.7847534,0.71157116,-1.5210427,1.4050052
AGCCAATCACGCTATA.1,-0.27548987,-2.843564,0.41229028,0.11877561,1.478801,0.9999965,-0.3247934,-0.05482837,-0.13341516,-0.11657372,0.53449464,0.20430648
AGCCAATTCACAGAGG.1,0.046060786,0.9102582,-0.13230817,0.6050404,-0.30678672,0.30856124,-2.1636603,-1.0076555,0.6527108,-1.0847787,0.40187278,1.7706856
AGCCACGTCTGTGCTC.1,0.6964369,0.9636485,-0.7078004,0.5319451,-0.47382784,0.43651515,-0.7182077,-1.5207074,0.08660843,-1.0537448,-0.51575077,2.2748847
AGCCAGCAGTCATAGA.1,0.6919794,0.9848628,-0.33846024,-1.2354823,0.041128077,-0.49975368,0.5506335,-1.2582766,-0.16944131,0.49393845,-1.3950306,2.1339023
AGCGATTAGGTATTGA.1,-0.13018768,-2.5339808,0.3620784,0.93006974,0.5740154,-0.21933317,0.7034103,0.058470406,-0.5032584,-1.1861576,0.70923525,1.2356384
AGCGATTCAAGAGTAT.1,0.52854663,0.6545444,-0.05939689,0.40224177,-1.1021013,-1.3099277,0.28009692,0.85993254,0.26546603,1.8265488,-0.39197907,-1.9539721
AGCGATTCATGACTGT.1,1.1297547,1.15205,-0.72429186,-0.35346612,-0.17830409,1.9418432,-0.28718528,-0.9102742,-1.746982,-0.7459769,0.6474277,0.07540472
AGCGATTCATGATAGA.1,0.21862583,0.8189509,-0.8460598,-1.3579282,0.96566135,0.6197949,1.0151064,1.2263225,-1.4028943,-1.2634518,0.8111254,-0.8052534
AGCGATTTCTTAGCTT.1,0.02237465,1.2677113,-0.74891555,-1.1578679,-1.3760463,-0.7797683,1.6307969,1.3692447,0.5849338,0.1968744,0.026704498,-1.036042
AGCGCCAAGATCGCTT.1,-0.14275338,0.9974614,0.5366209,-0.8271495,0.23843443,0.28442803,-1.5777853,0.64442754,-0.17218417,-2.1323748,1.2758248,0.8750498
AGCGCCAAGTTCCATG.1,0.21083894,-0.13012838,0.45010892,-0.16815194,-2.4117594,-0.54943067,0.9547966,0.77576244,0.039674602,1.395857,0.7073722,-1.2749403
AGCGCCACACTCCTGT.1,-0.36331525,0.8115618,1.7540585,-1.8497154,-0.25356477,1.043202,-1.2829586,0.5229684,0.3064349,0.7151051,-0.546029,-0.8577479
AGCGCCAGTGTCTTGA.1,1.1601219,1.1285502,-0.5250654,0.24456191,-0.104993634,0.5191575,1.183719,-2.1305737,-1.0680934,0.4586274,-1.173868,0.30785614
AGCGCCATCATGAAAG.1,0.65305305,-1.5594956,0.40702844,0.21023785,0.73650026,1.5256424,-1.702329,-1.160107,-0.7135245,0.66621727,0.006817596,0.9299591
AGCGCTGGTACGAAAT.1,0.39631608,0.88043344,-0.66334015,-0.885827,0.22659127,0.8462698,0.09467368,1.9575254,-1.3876173,-0.7489167,0.75817007,-1.4742782
AGCGCTGGTAGGACTG.1,-0.7797585,1.1996342,-0.24814561,-0.15671183,0.08296767,-0.69918203,1.8537282,0.918526,0.15146525,-0.5259875,0.36220947,-2.1587455
AGCGCTGGTGACATCT.1,-0.029899664,0.24862362,1.2951143,-0.7039993,-0.44800758,0.8641849,0.70148623,1.2803824,-1.0980592,-0.90942234,0.80195755,-2.002361
AGCGCTGGTGCTCTTC.1,0.90062606,-2.19398,-0.06144949,-0.47602123,-0.07292625,1.294725,-0.2562713,-0.24289817,-0.6206805,0.14920732,-0.36849704,1.9481658
AGCGCTGTCTTAGCTT.1,1.1531924,-0.09599304,-0.107404366,-1.5707018,-0.123636864,0.8187619,-0.27861622,1.7993236,-0.68292946,-0.4218913,1.0620352,-1.5521402
AGCGTATAGCGTGAAC.1,0.85274553,-0.21720788,0.21687326,-0.02936501,0.16580492,1.7918798,0.09432211,-0.06197076,-1.568774,-1.350383,1.4014581,-1.295383
AGCGTATAGCGTTCAT.1,-0.62147903,1.1254988,0.28856218,-0.3779665,-1.7300981,0.25959063,-0.095299594,1.1095297,0.52775204,1.3506614,0.08921753,-1.925969
AGCGTATAGGCCCACT.1,1.1110401,1.5071851,-0.74819505,0.6490079,-0.7353897,1.5887897,-1.4912652,-0.8998328,-0.23062983,-1.121312,0.31787306,0.052728783
AGCGTATCACACACGC.1,0.1300247,1.3510976,-0.38483134,-0.5234232,-1.3121738,-0.79979694,1.2308911,1.3140045,-0.52630997,-0.19035241,1.2297258,-1.518856
AGCGTATCAGAGCGTA.1,1.0687257,-2.3680007,0.3528138,0.19762573,1.253637,0.8224089,-0.16592607,0.56541276,-1.2877539,-0.7619255,0.47825575,-0.15527332
AGCGTATGTACCTAGT.1,-1.1374649,2.2734995,0.89842093,-1.2772709,0.6124579,0.16807367,0.18983816,0.80643165,-0.6647169,-0.82040966,-0.10964284,-0.9392163
AGCGTATGTCCAAATC.1,1.1001678,1.2497039,-1.4506646,-0.43666142,0.677119,-0.40777457,0.671271,-0.9391011,-1.1474875,0.7957017,-1.2848179,1.1725436
AGCGTATTCTCCTGTG.1,0.9697857,-1.3649259,0.36364233,0.29799846,-1.3378835,-1.1371499,0.35446253,1.0708538,-0.3540509,-1.1632359,0.6525498,1.647953
AGCGTCGCAGGAATAT.1,0.36758956,0.31997412,0.40912804,-1.5480785,1.8297232,-0.11292126,0.3219837,1.0143617,-1.9224513,-0.807028,0.4822199,-0.35450122
AGCGTCGCAGGCACAA.1,0.8025241,0.7007007,1.3063022,-0.42078295,-2.0043256,-0.4543532,-0.03826915,1.2866988,0.04384639,0.06994427,0.41660318,-1.7088886
AGCGTCGGTACAGTAA.1,0.6549003,0.92237073,1.6364024,-1.817142,-0.84424794,0.947774,-0.38181788,1.2058499,-0.65348536,-0.45280614,-0.32957935,-0.8882184
AGCGTCGGTCTTCTAT.1,-0.36611035,0.063895635,0.584075,-1.1067272,0.76792294,0.3639061,0.5804473,-1.3173076,-0.82576346,-0.15156254,-1.0002869,2.4075112
AGCTACATCTAAGCGT.1,-0.4907322,1.6339611,-0.37981164,-0.5487108,0.28912863,1.3530761,-0.587997,1.0255039,-0.94695115,0.19037656,0.49929792,-2.0371416
AGCTCAACAGTGCGCT.1,-0.039506182,1.4836695,0.9867132,-0.8860276,-0.6747781,-0.5094735,0.77654207,1.1698207,-0.1700129,-0.40156195,0.4843783,-2.2197635
AGCTCAAGTCACATTG.1,-1.1444776,1.7377474,-0.9126406,-0.8397613,1.162847,-0.093172,0.70152295,1.1115196,-0.3688066,0.6720714,-1.4617716,-0.5650787
AGCTCAAGTCACCACG.1,0.09785254,1.4564528,-1.1850836,-0.066053644,-1.3145161,-0.6727984,-1.2018161,1.032276,1.0380052,1.1026689,-0.9906371,0.7036493
AGCTCAATCGGTGAAG.1,0.06527922,0.01921209,1.4700704,-1.4718599,0.50406414,0.20451058,-0.121598594,1.5934998,-0.60434294,0.6803514,-0.3777743,-1.9614117
AGCTTCCAGAGGGTCT.1,0.5908885,-1.2894377,0.16916874,-0.39500073,-0.5941814,0.27778772,-0.15778354,0.6941704,0.24820037,2.5649168,-1.0169421,-1.091787
AGCTTCCAGTGCAGCA.1,0.9504746,-1.9126298,0.22452334,1.8624345,-0.81872755,0.09356701,-0.5903298,-1.2267911,0.452396,-0.117804684,1.0808572,0.002030528
AGCTTCCAGTTGGACG.1,0.33663797,-2.1579278,0.33899665,1.0625472,0.79686385,0.9464274,0.55990434,-0.78497463,-1.4042989,-0.839903,0.26313457,0.8825925
AGCTTCCGTCCAGCAC.1,0.5515835,0.89521044,1.0166214,-1.4846345,-1.4539019,0.80405056,0.00082562765,0.9708046,-0.05584044,-1.0828749,1.0948907,-1.2567348
AGCTTCCGTGAAGCGT.1,1.0680197,1.6342193,-1.5132471,-0.17157537,-0.44252592,0.31130916,-0.048893847,-1.3388002,0.23698513,0.3186669,-1.3729264,1.3187681
AGCTTCCGTGCGGCTT.1,0.31455138,1.6089258,0.67203915,-1.9435589,-0.71337265,-0.020245818,0.49856234,1.5883805,-0.38129604,-0.28769013,-0.084395126,-1.2519004
AGCTTCCGTTATTCTC.1,-0.4030583,0.8100248,1.7742015,-1.698821,-0.5568469,1.137597,0.3599327,0.49762154,0.2533035,-1.3736393,0.26877266,-1.0690882
AGCTTCCTCGGCATAT.1,-0.009718758,-0.11416892,-0.42124757,-0.6967013,-1.3929795,-0.998089,1.3889925,0.92091703,-0.0602168,1.8713685,0.75223315,-1.2403893
AGGAAATAGAGCATCG.1,0.4493567,1.2446624,0.96305925,-1.8059609,-1.0881293,0.9013409,-0.26355237,1.3383169,-0.1745402,-0.6679934,0.36545628,-1.2620164
AGGAAATAGCTAGATA.1,-0.07240382,0.3977673,0.8200638,-0.7429499,-0.5618309,0.38204184,0.32132968,0.46088904,0.08337293,1.5417256,0.09787446,-2.7278802
AGGAAATAGCTCAGAG.1,0.047989137,1.2982461,0.8151363,-2.532497,0.7516615,-0.28316322,0.28772652,1.1358157,-0.8716885,-0.025717864,0.049730238,-0.67323923
AGGAAATCAACACGTT.1,0.3061967,0.26303774,0.20544155,-0.633468,0.279635,0.0031132007,1.0493608,1.274442,-0.60961026,0.6625736,-0.011593529,-2.7891285
AGGAAATGTCACCGAC.1,0.1466159,0.073709235,0.6783587,-0.23410782,-0.9528894,-0.6080262,-0.8284427,1.7029114,0.3944326,-2.18284,1.0379062,0.77237207
AGGAATAAGGGTACGT.1,-1.1955684,-1.1687387,0.6215483,0.7072631,0.60338056,-0.33613735,-0.975015,0.8167746,-0.705025,-1.149918,1.9082733,0.87316245
AGGACGAAGATAGCAT.1,-0.5406579,-0.21347475,1.9655644,-0.8251198,0.013427861,1.7612978,-0.17154542,0.33332863,-0.13537799,-0.42303947,0.14763238,-1.9120357
AGGACGAAGTCATACC.1,1.9450508,0.24556096,0.21892375,0.0034882934,-1.8179574,-0.609806,-0.8968259,0.23911017,-0.20838524,0.5110459,1.4492683,-1.0794736
AGGACGAGTGAACTAA.1,-0.02268324,1.0102878,0.3620927,-1.642957,-0.15361494,0.39368916,0.39208773,1.8190486,-1.00618,-0.10508581,0.68824935,-1.7349344
AGGACGATCAGACATC.1,0.37947786,-0.7124777,0.8251624,-0.6473597,-1.4452628,-0.29104105,0.61592543,1.0283095,-0.4512168,0.16561373,2.0363402,-1.5034709
AGGACTTAGGTCCAGA.1,-0.61692315,1.2402894,0.71757835,-1.5787776,-0.60970134,-1.1613097,1.7187274,0.79354656,0.28796118,0.5377546,-0.1575725,-1.1715734
AGGACTTAGGTTCTTG.1,0.123750396,1.5602068,-0.27939838,0.1604958,-0.08750944,0.4075873,-2.0460577,-1.3440269,0.20056185,-0.64650166,0.29762098,1.6532708
AGGACTTCACGTAGTT.1,1.8932757,1.282097,-0.44924858,-0.19354005,-1.7116119,-0.70075667,0.49434868,0.9533385,-0.87642676,-0.14723375,0.44224596,-0.9864883
AGGACTTCAGAGTCAG.1,0.37462264,0.54941314,-2.0521233,-0.2524527,1.5740813,1.1899933,-0.34830472,-0.038502228,-0.97868234,-0.4683902,-0.77173066,1.2220759
AGGACTTTCATCGGGC.1,0.2155886,1.3454478,-0.7155668,-0.027266925,-0.3287244,0.66109645,-1.6513243,-1.0785271,0.93815273,-0.15580168,-1.011034,1.8079596
AGGAGGTAGAGAGCGG.1,0.32839018,-0.9689159,-0.42784947,-0.6650332,1.4530556,0.641612,-1.2474777,0.17309134,-1.1540221,0.4932685,-0.6732038,2.0470846
AGGAGGTAGATTGTGA.1,0.22737078,1.1618174,1.3311186,-1.7783989,-0.966927,-0.8224869,-0.10097682,0.61122864,0.45091256,1.4757098,-0.90556014,-0.68380797
AGGAGGTAGTCTGGTT.1,0.5467752,-2.1807134,0.13930471,1.090279,-0.06554138,1.3016641,1.1028078,-0.1938896,-1.0994514,-1.0759239,-0.185226,0.619915
AGGAGGTCAGAAGCGT.1,0.2850197,0.4796358,0.6719529,-0.65259004,-0.62738246,-1.1375825,0.5539179,0.7296567,0.14513752,1.4777219,0.4908576,-2.4163451
AGGAGGTCAGTACTAC.1,-0.54909635,1.4963509,-0.2701259,0.3504275,-0.56396484,0.58754784,-2.0038524,-0.4071954,1.5731878,-0.259107,-0.9456037,0.9914314
AGGAGGTGTCACATTG.1,1.114087,0.6397903,-0.91827226,-0.66364473,0.46300313,-0.3851899,0.55399936,-1.2764035,-0.46272835,0.95480645,-1.6891588,1.6697112
AGGAGGTGTTTGCAGT.1,1.0459558,0.35877442,1.2322216,-0.117711335,-0.27723894,0.31513727,-0.46861073,0.39668378,-1.2064862,0.96322477,0.25658107,-2.4985316
AGGAGGTTCAAACGTC.1,-0.26148045,-0.3441167,0.59687185,1.2400712,-0.14935754,1.0778787,-1.9093063,-0.9505722,-0.06496109,-1.2576098,1.5379736,0.48460847
AGGAGGTTCTAAGAAG.1,0.42793927,0.6969396,0.0032194513,-1.9704564,-1.4721218,-0.29433456,0.7960091,1.4354454,0.4175961,1.0611306,-0.005873644,-1.0954932
AGGATAAGTAAGATTG.1,0.06735853,0.43512678,1.2274948,-2.0359676,0.050281797,0.8403829,0.019339362,1.1105547,-0.50356853,1.1029553,-1.336493,-0.97746503
AGGATCTCAAAGCGTG.1,-0.08424192,0.43465948,0.8827115,0.90860265,-0.8714345,-0.080596864,-2.1492999,-0.6645231,0.9381954,-0.9441968,0.017599722,1.6125242
AGGATCTCACGTCGTG.1,0.49688238,-0.8197821,0.5569347,0.88889354,-1.1275038,-1.3708603,0.48335993,-0.09564218,0.6622968,2.08566,-0.5268378,-1.2334008
AGGATCTGTGGCTACC.1,1.5657876,-1.5875505,-0.6650158,-0.082527965,0.6950132,1.3754758,0.38030517,0.37598494,-1.458017,-0.75541705,0.85558355,-0.6996218
AGGCATTAGAGGACTC.1,0.7886987,1.845557,-0.97209626,-0.14731014,-0.23222062,0.211205,-1.0900483,-1.2613441,0.7723642,-0.26064312,-1.1315335,1.4773711
AGGCATTAGGATGGCT.1,-0.03419434,-1.0797936,1.1571186,0.121400416,0.020493397,-1.0549581,-0.74055356,0.23255943,-0.2065445,-1.1567689,2.516347,0.2248943
AGGCATTCAAAGTATG.1,0.30313283,-1.7420715,1.0872037,-0.040598318,0.1349304,0.74912536,-0.90307033,1.0035905,-0.33975387,1.660548,-0.41577548,-1.4972612
AGGCATTCAGATAAAC.1,0.9043579,-2.4137712,-0.040734906,-0.044940744,-0.45850068,0.29893097,0.51108086,1.0446285,-1.1314985,-0.077777736,-0.13916738,1.5473931
AGGCATTCATCGTTCC.1,0.5282447,0.7939157,-0.14321809,-1.052535,-1.5745181,-0.89325327,1.2072101,1.4461274,-0.090816215,-0.054443873,1.163952,-1.330665
AGGCATTCATGGATCT.1,-0.08675445,-1.5245881,0.47925606,0.85192204,-0.1621423,0.6970283,0.20174491,0.42470998,-0.10542835,-2.2560868,-0.20393981,1.6842786
AGGCATTTCGTCACCT.1,-1.5151893,-0.15983821,-0.20654243,1.3636185,0.19935125,-0.3467794,-1.4229132,-0.54686713,1.0588195,-0.12970214,-0.30878413,2.0148268
AGGCCACAGATGCGAC.1,0.0446098,0.3074679,1.7768707,-2.332009,-0.51547486,1.139828,0.13734631,0.869581,-0.04881461,-0.6241897,0.0037123347,-0.75892764
AGGCCACAGCGACATG.1,-0.23137699,2.568744,0.68197167,-0.7489857,-0.025690876,-0.11079145,-0.5834413,0.47873628,-1.036991,0.34174195,0.24343243,-1.577349
AGGCCACTCCGCAACG.1,1.6205807,-0.06029508,-0.7313484,0.43356687,-0.26191235,1.2464103,-0.7650405,-2.0164723,0.18345614,0.016886236,-0.9015297,1.2356983
AGGCCACTCGCTGCGA.1,-0.46662554,0.9619645,1.8944948,-1.8583559,-0.33883548,1.1614671,0.44568747,0.5487537,-0.52597964,-0.8038088,-0.9615997,-0.057162695
AGGCCACTCTAGTGAC.1,1.2098459,1.7432755,-0.7119266,0.013937781,-0.6916727,0.30730608,0.25334927,-2.1796737,-0.07067644,0.13246942,-0.89184004,0.8856054
AGGCCACTCTATCCAT.1,-0.29524413,0.76038146,-0.07430539,-1.1515229,-1.0144409,-0.36936584,1.3570104,1.9431026,-0.017844414,-0.38557994,0.80470777,-1.5568987
AGGCTGCAGCGAAACC.1,0.3350673,0.53103405,-0.55548054,-0.38509157,1.2053185,1.1498147,-1.9851136,-0.86718434,-0.44861794,-0.7848855,0.116833925,1.688305
AGGCTGCGTGACTCTA.1,-0.66233844,0.4351292,2.143341,-1.1857812,-0.69587934,0.105426155,1.3795276,-0.83896065,0.2711763,-0.15453766,-1.3615061,0.5644029
AGGCTGCGTTAAACAG.1,0.47019526,-0.615247,-0.10028657,0.85321057,-0.6095108,1.0515336,-0.93910927,-1.6626713,0.9825599,-1.1596737,-0.06656064,1.7955601
AGGGAGTCACAATGCT.1,0.23977612,0.48020446,-0.7683504,0.18032362,-1.6940506,-1.4362255,1.3089134,0.5695858,0.3148447,1.7242694,0.09893267,-1.0182235
AGGGCCTCAATACGAA.1,0.4444049,0.99751174,0.31794778,-0.61982334,-0.464474,-0.10352526,1.4460275,-1.8226991,-0.2481231,0.54713345,-1.6962237,1.2018431
AGGGCCTCACACAGCC.1,0.35373148,-2.5625563,0.33391064,0.40047374,0.06735746,0.6902079,-0.89155585,-0.7528271,-0.11883393,1.3610858,-0.032525588,1.1515317
AGGGCCTCAGGGTCTC.1,-0.304992,1.0626644,0.68823004,-1.7040651,0.11413476,0.5998086,0.45991352,1.7058924,-0.81158936,-0.92358494,0.5571163,-1.4435284
AGGGCCTGTTTCTATC.1,0.7936332,-0.7184918,0.8025638,0.27439755,-0.36373404,1.0554609,-0.0017018613,0.4577045,-1.2830046,0.15145108,1.1945174,-2.3627963
AGGGCCTTCGAGTTGT.1,-0.7328964,0.9603598,-0.37553853,-0.08098816,1.7079753,-1.1008637,-1.4933124,1.3833959,0.4775412,-0.30884627,-1.1407194,0.7038926
AGGGCTCCATGACGAG.1,0.34326595,-1.7208679,-0.13883549,0.28229067,0.7182117,1.5539838,0.9758972,-0.98550254,-1.5010486,-0.8701347,0.5043683,0.83837134
AGGGTCCAGAGTGGCT.1,0.866622,1.6684619,0.13356496,-0.07583811,-0.98762614,0.6763034,-1.9660249,-0.97235173,0.70255226,-0.5597618,-0.53637236,1.0504706
AGGGTCCGTCCGGATC.1,0.04528246,1.7481781,0.25076285,-1.2895303,-0.5972947,-0.51529557,0.84748024,1.643119,0.039546575,-0.6639263,0.13909654,-1.6474189
AGGGTCCGTGTCATCA.1,-1.1440375,-1.7622082,0.939586,0.97822416,1.1247958,-0.21062282,-1.0931102,-0.15775067,0.16628459,-0.9616737,0.9708107,1.1497014
AGGGTCCTCCGATCTC.1,0.09637941,0.3969899,0.95969355,-1.6869416,-0.9703156,-0.19307426,0.65212274,1.9219912,0.31824735,0.44391897,-0.34101814,-1.5979934
AGGGTCCTCTAATTCC.1,-0.09965559,1.0966285,-1.3962394,-0.4868861,-0.85187954,-0.8457838,1.7809187,1.3006105,0.5073828,0.7052569,-0.6562472,-1.0541059
AGGGTGAAGAAAGCGA.1,-0.07868592,-0.14926554,1.0654446,-0.45676556,-0.39423287,-0.29995728,0.8753728,1.0187409,0.4589019,-0.29027534,0.96293837,-2.7122161
AGGGTGAGTATCGATC.1,-0.104449324,0.80248934,0.3851623,-0.11263086,-1.5031791,-1.4268333,1.0928456,0.42139044,0.8052322,1.3613662,0.01493715,-1.7363307
AGGGTGATCTGTAACG.1,-0.6255858,-0.3567082,0.58526814,-0.84287393,1.4378603,1.1633334,-1.786643,-0.022077186,-0.66575074,-0.80627054,0.29654083,1.6229067
AGGGTTTAGATACGAT.1,-1.1650095,0.20991346,-0.43081817,0.16380793,1.1699932,-0.6049084,0.22621594,1.2017056,-1.285668,-1.625816,1.6036367,0.53694755
AGGGTTTTCTTACCGC.1,0.41589147,0.56947076,0.4037397,-0.23723172,-1.7120914,-0.6178215,0.45583358,1.4506403,-0.32315043,1.1157805,0.49488658,-2.0159478
AGGTAGGAGCCAGAGT.1,-0.88787,1.9547374,-0.37315533,-1.8277091,-0.032475006,0.28909248,0.5333716,1.3101032,-0.38744572,-0.085103534,-1.1260589,0.63251305
AGGTAGGCAAGACCGA.1,0.4976485,1.3124714,-0.48637858,-1.0132763,-0.5411161,1.4232699,-1.3622682,-0.9717682,0.5454888,-0.38848865,-0.67287475,1.6572924
AGGTAGGCATGGAGAC.1,0.4316552,-0.78441644,0.253754,-0.7174311,1.4398514,2.0744648,0.2230209,-0.8437813,-1.4268624,-0.5189459,0.6982576,-0.82956666
AGGTCATGTAACGTTC.1,-0.09191376,1.1126413,0.18751435,-0.6276027,-0.4189036,-0.4521297,0.6354063,0.4531341,-0.25605842,2.0394278,-0.34772572,-2.2337897
AGGTCATGTTAAGGGC.1,1.028246,-2.4023743,0.6409414,-0.48264006,-0.22267404,0.18336661,-1.17477,1.4724362,0.7669746,-0.20949705,-0.1033733,0.5033639
AGGTCATGTTAGAAAC.1,-2.1559842,0.3187073,0.08231595,1.0850674,0.7120732,-1.0674849,-0.61613476,1.9710629,0.20915392,-0.1061923,-0.27170295,-0.16088153
AGGTCATTCCGTCACT.1,0.41502392,2.0534208,0.22053944,-1.7977147,-0.79040104,0.9743606,-0.44763133,1.0728945,-0.7575149,-0.6967514,0.274133,-0.5203587
AGGTCTAAGGTCCAGA.1,0.23594466,1.8471743,-0.29368743,-0.6464676,-0.6357933,0.43956062,-1.3106924,-1.2498634,1.4548148,-0.16648374,-0.8255367,1.1510304
AGGTCTAAGTGCTCGC.1,0.30352327,0.20392397,-0.46949586,0.2683993,0.9764685,0.3129922,0.9377303,-1.4609249,-1.0143301,-0.8146174,-1.2847003,2.041031
AGGTCTACAAATCAAG.1,1.2966115,-0.5514632,-0.40389547,0.026412642,0.48425728,0.14573038,-1.195909,1.2038633,-0.09257348,1.4922924,-2.093541,-0.3117858
AGGTCTACAAGACCGA.1,0.94381124,0.51261306,-0.2296522,0.4535483,-1.1609986,0.78985846,-1.6406808,-0.53638846,0.65269256,-1.6238549,0.25518593,1.5838654
AGGTCTAGTATGTCTG.1,0.75351083,0.7254816,-0.6635371,-1.0229385,-1.5013502,-0.74129456,1.3178726,1.1556188,0.3590702,1.001905,0.16002138,-1.5443602
AGGTCTAGTCTTTCAT.1,0.64647317,0.46527988,0.3938871,-1.0999771,-2.0010343,-0.30938724,0.39228204,1.2787746,0.5069332,0.19172946,1.1294385,-1.5943991
AGGTCTATCAGTGTGT.1,0.4975412,0.37872267,1.5505711,0.29575682,-0.5830974,-0.5707395,-0.67214245,0.41304868,-1.3511183,-0.08272082,1.792562,-1.6683842
AGGTCTATCTCCGATC.1,0.94806564,-1.6908414,0.30845347,0.68952197,-0.62903535,0.11143913,0.23811491,0.36528757,-0.14842044,-1.8749539,-0.18855886,1.8709275
AGGTGTTCAAAGGCTG.1,0.964821,0.093403935,-0.5794656,1.2377524,-0.5929163,1.6881899,-0.80292225,-1.8395433,-0.017328052,-1.0732174,0.021282608,0.899943
AGGTGTTCAACTAGAA.1,1.4516952,-0.6439547,0.0015043255,-1.9945332,0.27935213,1.5411515,-0.7676674,0.59181666,-0.6484597,-0.97514266,0.75221384,0.41202378
AGGTGTTCACTGGACC.1,0.67912096,1.7413628,-0.04597524,-0.79928005,-0.61555326,0.08958442,0.13942277,-1.8243266,0.2530841,0.48480713,-1.4343504,1.3321035
AGGTGTTGTCATTGCA.1,0.097276434,0.13343856,2.455195,-1.3962681,-0.78081554,0.65748954,0.8126433,0.17204583,-0.23567747,-0.77738,0.12236724,-1.2603146
AGGTGTTTCTTGAGCA.1,0.42833906,1.100517,-0.87644714,-0.63015395,0.05899975,0.99287564,-0.5162672,-1.5865688,0.4487477,-0.49960887,-0.9822881,2.0618548
AGGTTACCAGATTTCG.1,1.8521512,-0.9730648,-0.64084965,-1.0805892,0.008403714,-0.7804227,0.1933833,1.355444,-0.999118,-0.7496135,1.3282133,0.48606235
AGGTTACCATCATTTC.1,0.10163151,0.509085,-0.7451197,-0.013209898,-1.2210919,-1.4045393,1.3096838,0.47664514,0.9598371,1.5567838,0.026981987,-1.5566876
AGGTTACGTACGAGTG.1,-0.061203334,-0.8192255,-0.24873142,0.96745104,0.6053347,2.2791543,0.004673577,-0.018144988,-1.3557534,-1.5630301,0.5858299,-0.3763547
AGGTTGTAGCTCGGCT.1,0.3205586,-0.37785405,0.4960383,1.2886914,-0.5579644,0.59077847,-1.339914,-1.1341376,1.0511901,-1.3758801,-0.61398464,1.6524781
AGGTTGTAGTAGTCAA.1,0.44091737,1.0532165,0.28549027,-1.7811952,-1.7819453,-0.5865895,0.83989674,1.465792,0.23188522,-0.27804086,0.737777,-0.62720424
AGGTTGTAGTCAGCCC.1,1.8066581,-1.4569889,-0.107993856,-0.38123107,-0.06039196,0.9346109,-1.3906385,-0.22790986,-0.80329597,0.753115,-0.5189946,1.4530605
AGGTTGTAGTTGGGAC.1,0.06689779,0.3696727,-0.5136026,0.9966881,-0.5271312,1.0181175,-1.8907161,-1.5381287,0.60367686,-0.7047278,0.7132679,1.4059855
AGGTTGTCAAAGGCTG.1,-0.3956969,0.58648944,0.031763244,-1.6626446,-1.5552245,-0.80963475,1.1491051,0.9472592,1.1558261,1.2867019,-0.66797936,-0.06596466
AGTAACCAGACAAGCC.1,0.0525727,0.49265766,-0.060279135,-0.80197877,-1.0901856,-0.9147717,0.8899688,2.0405478,-0.70429206,-0.24755369,1.4964753,-1.1531612
AGTACCAAGTATGCAA.1,0.5393353,0.73178124,1.0168583,-1.0375829,-0.37408674,0.6632608,0.978472,0.7454302,-0.6850492,-1.6522449,0.82958454,-1.7557586
AGTACCACACCCTTGT.1,-0.7443959,-1.7635347,0.7254486,1.0548909,0.12759946,0.122227624,-0.8075345,-0.41405702,0.55612016,-1.3883086,0.8180301,1.7135139
AGTACCACATTCTGTT.1,1.8927357,1.2384353,-0.7503742,0.6338726,-1.2194439,1.2467543,-0.27930635,-0.23667736,-1.3937409,-0.3171234,-0.83663744,0.021505557
AGTACCAGTCACTTAG.1,0.25582695,-2.7575703,0.2769267,0.40909392,0.78610235,0.57904875,0.617715,-0.2576744,-0.7507948,-0.76609135,0.45542285,1.1519945
AGTACCAGTGGTGATG.1,0.45729607,-1.0180677,0.62007505,0.4862215,-0.18513319,2.7205527,0.20622592,-0.65530473,-0.99224716,-0.77819955,-0.06690359,-0.7945153
AGTACCATCCCTTTGG.1,-0.30051914,0.67286843,-0.8822683,0.75512576,1.0369899,-0.6924191,0.75325185,0.45181632,-0.1575198,1.402504,-0.7550972,-2.2847328
AGTACTGAGCACGATG.1,1.4490713,-0.5309223,-0.4597199,-0.35338166,-0.09815098,0.48883367,-0.29684585,1.2608004,-2.0052912,0.73155385,1.0864571,-1.2724042
AGTACTGCAAATACAG.1,0.60354316,-0.03864298,0.5495989,-0.35691178,-0.20064154,-0.35124686,-0.22942412,0.9250197,-1.9725521,-0.47641185,2.325817,-0.77814764
AGTACTGCACGCAGTC.1,-0.2788874,0.8585609,1.3578515,-1.4234663,0.69762045,0.1794214,-0.33678257,-0.8447353,-1.1111833,-1.3846256,0.82383233,1.4623935
AGTACTGTCACAACCA.1,0.10973469,0.8325448,-0.15765288,-0.35661483,-1.4354606,-1.3126768,1.2728345,0.61167175,0.7970748,1.389245,-0.07939933,-1.6713011
AGTACTGTCACCACAA.1,-0.52051085,-0.26649913,0.3843349,-0.78706783,-0.7327431,0.26918763,1.5744034,0.72471863,-0.2778902,1.8441306,-0.28357655,-1.9284875
AGTAGCTCATTAAGCC.1,0.7644458,-0.8198074,-1.0335599,0.44697505,0.15859012,1.9189637,0.14840157,-0.4390834,-0.6786266,-1.9744241,0.9228978,0.5852275
AGTAGCTTCGGAATTC.1,-0.5738118,1.196054,0.9098972,-1.4216638,0.44574344,0.39934033,0.7674326,0.32790506,-0.29218656,0.9756574,-0.48376584,-2.250602
AGTCAACAGACAGCTG.1,0.5430404,0.29182503,0.63662946,-0.41084406,-2.260638,-0.2594943,0.071415454,0.7411331,0.21743424,-0.37841192,1.9526358,-1.144725
AGTCAACAGGGATGTC.1,0.20719479,-0.85862505,-0.26654875,-0.647041,2.2692351,0.8363107,-0.3490545,-0.71587455,-1.7740331,0.048376895,0.22747102,1.0225883
AGTCAACCACCTGCAG.1,0.21043842,0.85226285,0.976515,-2.1380599,-0.4489573,-0.028138086,0.6001215,1.67251,-0.14179763,-1.0623832,0.4867665,-0.9792782
AGTCAACCAGTTCTAG.1,-0.14309159,0.91367704,1.0670807,-0.79789084,-1.3274455,-1.1537553,1.1428005,0.5286742,0.33494216,0.53128403,0.8111484,-1.9074237
AGTCACAAGATTTGCC.1,-1.2064135,-0.6735562,0.8295243,0.95754045,0.90363854,-1.1110291,-1.1322283,-0.5961887,0.13620858,-0.74690926,1.9271135,0.7122997
AGTCACAAGTTTAGGA.1,-0.29562116,1.5318501,1.1302227,-1.144312,-1.125507,-0.80739486,0.1570136,0.389258,0.44927773,-0.1283905,1.4472194,-1.603616
AGTCACATCTCCACTG.1,0.18577506,0.56610346,-0.74414843,-0.33881265,-1.2261063,-0.89648116,1.45575,1.139084,0.19991173,0.20313479,1.3127319,-1.8569423
AGTCATGAGCAAACAT.1,-0.07092337,-1.6751224,0.02681231,1.0255682,1.4634055,1.2274238,0.5904452,-1.0174747,-1.7168185,-0.1878808,0.3485136,-0.013949216
AGTCATGCAGTCTACA.1,0.23053335,1.1641341,-0.9205647,-0.73742473,-1.878633,-0.41938406,1.4658077,1.3988924,0.09384467,0.26329362,0.4091809,-1.0696799
AGTCATGTCTCAGGCG.1,0.60355306,0.16488503,-0.48817992,0.42506957,-1.2288251,-1.4808463,1.0787717,0.3953596,0.39052927,1.6565965,0.27091676,-1.7878302
AGTCTCCCAAGCAGGT.1,0.63152915,0.23709178,1.3863825,-0.80985117,-0.67743784,0.6763467,-0.2508277,1.2310688,-0.7384652,-1.1741568,1.2303208,-1.7420008
AGTCTCCGTAAGACCG.1,0.83282197,1.1702155,-0.32448912,0.11068987,0.22497424,0.33643538,1.4040339,-2.1021454,-1.1029326,0.28594825,-1.3172283,0.48167613
AGTCTCCTCACCTGTC.1,1.1674156,1.8472368,-1.320683,-0.08775879,-0.66575545,0.90606844,-0.675951,-1.300654,0.53499705,-0.37827522,-0.91622716,0.8895867
AGTCTCCTCGCCGATG.1,-0.0007385728,1.1007702,0.12393124,-0.9584996,-1.1040784,-0.33373794,0.8332392,1.8288972,-0.6929747,0.816492,0.20242286,-1.8157237
AGTGACTAGGCACTCC.1,0.71236724,0.8498154,0.120230064,-0.7053431,-1.8431114,-1.4525872,0.91070735,1.132584,0.60114956,0.5782681,0.42395213,-1.328032
AGTGACTCAAGACAAT.1,-0.35713655,1.0121348,2.1069381,-1.2254373,-0.7526493,-0.29004234,1.6101781,-0.4113644,-0.36322898,-0.46408895,-1.0543282,0.18902497
AGTGACTCAGTCGCTG.1,0.7792452,1.9239587,-1.3536068,-0.41659656,-0.5342699,0.28035933,-0.6357343,-1.2985538,0.29715297,0.07955807,-0.73344797,1.6119351
AGTGATCCAATACCCA.1,0.5713106,-0.022106234,0.86644685,-0.9075697,-1.1637068,0.10852238,0.27747056,1.1298645,0.36583096,-0.16591594,1.2941812,-2.3543286
AGTGATCCAGAGATTA.1,-0.4819889,0.6537069,2.2146783,-1.1915431,-1.19211,0.37105656,0.9930576,0.33983687,-0.10838069,0.19678308,-0.30862483,-1.4864717
